{"type":"LSTM","options":{"inputSize":13,"inputRange":13,"hiddenLayers":[20,20],"outputSize":13,"decayRate":0.999,"smoothEps":1e-8,"regc":0.000001,"clipval":5,"maxPredictionLength":100,"dataFormatter":{"values":["bye","bye!","goodbye","goodbye!","hello","hello!","hi","hi!"],"indexTable":{"b":0,"y":1,"e":2,"!":3,"g":4,"o":5,"d":6,"h":7,"l":8,"i":9,"stop-input":10,"start-output":11,"unrecognized":12},"characterTable":{"0":"b","1":"y","2":"e","3":"!","4":"g","5":"o","6":"d","7":"h","8":"l","9":"i","10":null,"11":null,"12":null},"characters":["b","y","e","!","g","o","d","h","l","i","stop-input","start-output","unrecognized"],"specialIndexes":[10,11,12]}},"input":{"rows":14,"columns":13,"weights":{"0":-2.012970209121704,"1":-0.7398402690887451,"2":-3.0436313152313232,"3":-0.32132425904273987,"4":0.8712470531463623,"5":2.852224826812744,"6":-1.9696471691131592,"7":5.3396196365356445,"8":-0.6532226204872131,"9":-0.4557856023311615,"10":-1.080228328704834,"11":0.34463444352149963,"12":-0.29930904507637024,"13":3.6284735202789307,"14":2.428947687149048,"15":5.4711761474609375,"16":1.1097177267074585,"17":-6.710416793823242,"18":-3.115879774093628,"19":2.907663583755493,"20":0.7008528709411621,"21":0.4135695993900299,"22":-2.1028153896331787,"23":-3.801175117492676,"24":-0.24014723300933838,"25":0.004270837176591158,"26":-4.911266326904297,"27":-4.894730091094971,"28":-3.7980902194976807,"29":5.52956485748291,"30":-4.944110870361328,"31":0.8390264511108398,"32":-2.6097404956817627,"33":11.116717338562012,"34":6.2439422607421875,"35":1.8379545211791992,"36":-6.376957893371582,"37":0.4946518540382385,"38":4.661769390106201,"39":2.217660903930664,"40":0.336681604385376,"41":4.163216590881348,"42":-2.847470760345459,"43":-0.04569580405950546,"44":-1.3341753482818604,"45":2.589193820953369,"46":-0.17896239459514618,"47":0.7641527056694031,"48":0.36106711626052856,"49":0.0838007852435112,"50":-2.9530606269836426,"51":0.5476471185684204,"52":2.3464372158050537,"53":-1.4331530332565308,"54":1.8134148120880127,"55":-4.654541015625,"56":1.048535704612732,"57":-0.606628954410553,"58":0.9474366307258606,"59":-1.2951693534851074,"60":1.6093041896820068,"61":-0.554864764213562,"62":0.30363914370536804,"63":-1.3123881816864014,"64":3.948378324508667,"65":2.358449935913086,"66":0.024458201602101326,"67":0.7756590247154236,"68":-2.619655132293701,"69":-3.1815905570983887,"70":0.6920188665390015,"71":3.8909616470336914,"72":-5.127854347229004,"73":2.6110079288482666,"74":1.1595385074615479,"75":-6.907616138458252,"76":-0.8189457058906555,"77":6.4530205726623535,"78":-2.847496509552002,"79":0.007868313230574131,"80":-0.8357834815979004,"81":2.857170343399048,"82":-2.2117459774017334,"83":-1.2414110898971558,"84":-2.7568697929382324,"85":-0.034349240362644196,"86":-0.6360020041465759,"87":-0.38724857568740845,"88":0.45164725184440613,"89":2.085935115814209,"90":-3.8428127765655518,"91":2.464980125427246,"92":-0.5669760704040527,"93":0.577562689781189,"94":4.5235090255737305,"95":-2.310891628265381,"96":-3.5563528537750244,"97":-0.8624793291091919,"98":2.7707300186157227,"99":-1.6663293838500977,"100":-2.087571859359741,"101":-0.028642354533076286,"102":1.1883376836776733,"103":2.9757235050201416,"104":1.6839667558670044,"105":2.266479730606079,"106":-0.8167389631271362,"107":-1.2762043476104736,"108":1.4262198209762573,"109":4.466214179992676,"110":-0.001244568731635809,"111":-1.4583882093429565,"112":0.4610903561115265,"113":4.020880699157715,"114":-7.3052449226379395,"115":1.070881962776184,"116":1.3806416988372803,"117":-7.709413051605225,"118":3.3519511222839355,"119":5.253432273864746,"120":-2.030459403991699,"121":2.9721415042877197,"122":7.473153114318848,"123":1.1649599075317383,"124":6.827486991882324,"125":-0.009735088795423508,"126":3.7919812202453613,"127":4.275365829467773,"128":-2.8261237144470215,"129":0.4060124158859253,"130":-2.47770094871521,"131":-5.206402778625488,"132":-5.213830471038818,"133":-4.6861724853515625,"134":5.312637805938721,"135":-0.9302470088005066,"136":1.7881135940551758,"137":3.8676767349243164,"138":-4.036773681640625,"139":0.10934733599424362,"140":-0.2674664855003357,"141":0.4711318612098694,"142":1.4148579835891724,"143":0.7406063675880432,"144":-1.8467541933059692,"145":-1.3500186204910278,"146":0.1145540252327919,"147":-0.08112166076898575,"148":0.4528295695781708,"149":-3.456355571746826,"150":0.2725112736225128,"151":-0.47555139660835266,"152":-1.2374683618545532,"153":1.7759501934051514,"154":1.2324062585830688,"155":0.7054910659790039,"156":0.008746223524212837,"157":1.0917479991912842,"158":3.262986421585083,"159":-1.1237473487854004,"160":-1.5914515256881714,"161":-1.70059335231781,"162":3.6338050365448,"163":1.9969462156295776,"164":0.32354122400283813,"165":0.4098355174064636,"166":-1.2621413469314575,"167":-0.5285816192626953,"168":-0.31461867690086365,"169":-0.012345710769295692,"170":0.06839676201343536,"171":-0.05643857643008232,"172":-0.06364583224058151,"173":0.03913359344005585,"174":0.06691735982894897,"175":0.054892539978027344,"176":0.034923553466796875,"177":-0.04684707894921303,"178":0.0057547627948224545,"179":0.04862608760595322,"180":-0.007954672910273075,"181":0.016375068575143814}},"hiddenLayers":[{"inputMatrix":{"rows":20,"columns":13,"weights":{"0":1.8214303255081177,"1":-0.9312001466751099,"2":0.761909544467926,"3":1.1149632930755615,"4":-1.5297633409500122,"5":-2.8825173377990723,"6":1.2721190452575684,"7":0.6465178728103638,"8":-0.019477350637316704,"9":-2.522432804107666,"10":-2.7267837524414062,"11":-2.9143190383911133,"12":0.5179873108863831,"13":1.5425686836242676,"14":-0.8204407691955566,"15":1.3456302881240845,"16":-0.5597929954528809,"17":-1.4055875539779663,"18":0.11475745588541031,"19":0.21345335245132446,"20":-0.3180675506591797,"21":4.827083587646484,"22":-0.9157491326332092,"23":-1.4889276027679443,"24":1.6478440761566162,"25":3.026045322418213,"26":2.256695508956909,"27":1.4228912591934204,"28":2.564880132675171,"29":-0.7871735095977783,"30":-1.626367449760437,"31":-0.41426780819892883,"32":1.3745495080947876,"33":-2.248917579650879,"34":0.3872596323490143,"35":-0.08363071829080582,"36":-2.2393040657043457,"37":-1.9515223503112793,"38":-0.0396290086209774,"39":-1.5975966453552246,"40":-0.08987082540988922,"41":1.9236598014831543,"42":1.2688409090042114,"43":-2.5136282444000244,"44":0.7866602540016174,"45":2.944117307662964,"46":-0.7209345102310181,"47":-1.3517149686813354,"48":3.9867820739746094,"49":-1.545495867729187,"50":-0.4947308599948883,"51":-2.1283836364746094,"52":-1.6428378820419312,"53":-1.3372223377227783,"54":-0.9373205900192261,"55":2.813293933868408,"56":1.2239940166473389,"57":0.992922842502594,"58":-2.3205177783966064,"59":1.0078696012496948,"60":0.7357047200202942,"61":2.296992540359497,"62":3.10341739654541,"63":1.1528041362762451,"64":0.048200298100709915,"65":-1.8847495317459106,"66":1.691278338432312,"67":2.360048294067383,"68":-1.06405770778656,"69":-2.149834156036377,"70":-1.270788311958313,"71":1.2381763458251953,"72":2.120882034301758,"73":0.45298200845718384,"74":-1.5073277950286865,"75":-3.0989186763763428,"76":-1.4198534488677979,"77":-1.864518404006958,"78":0.5886080265045166,"79":2.0743093490600586,"80":-0.6154441833496094,"81":0.3836151361465454,"82":-1.242859125137329,"83":0.10982741415500641,"84":-0.5702601671218872,"85":0.804421067237854,"86":0.7066254019737244,"87":-2.8350889682769775,"88":-3.806920051574707,"89":1.1880799531936646,"90":-0.25354743003845215,"91":1.950416922569275,"92":-1.1387020349502563,"93":0.014689379371702671,"94":-1.339073896408081,"95":0.25044578313827515,"96":-1.6743680238723755,"97":1.7146342992782593,"98":0.6825864315032959,"99":-0.03544260561466217,"100":-3.1903879642486572,"101":1.6144697666168213,"102":-1.0636848211288452,"103":3.614123821258545,"104":-1.1192718744277954,"105":0.6963002681732178,"106":-0.18261627852916718,"107":-1.3192812204360962,"108":4.050848960876465,"109":2.8347885608673096,"110":-0.7256544232368469,"111":-0.008404094725847244,"112":0.13456608355045319,"113":-0.7001621723175049,"114":0.1074548289179802,"115":1.5508617162704468,"116":0.8828427791595459,"117":-2.125079870223999,"118":0.5355295538902283,"119":-0.30657723546028137,"120":0.9356213212013245,"121":-0.19132255017757416,"122":-1.6571236848831177,"123":1.9296597242355347,"124":-3.3353383541107178,"125":-2.9145257472991943,"126":0.8904778957366943,"127":-3.025684118270874,"128":-1.5373542308807373,"129":-1.4059455394744873,"130":-1.4399217367172241,"131":0.7250956296920776,"132":1.4877722263336182,"133":2.3640530109405518,"134":-1.6784316301345825,"135":-0.08002360910177231,"136":-0.38836947083473206,"137":0.6055967807769775,"138":-0.48507213592529297,"139":-0.34854283928871155,"140":-2.8417294025421143,"141":0.24693292379379272,"142":-2.1134064197540283,"143":1.8283354043960571,"144":-2.1500210762023926,"145":-1.6463067531585693,"146":-0.12292788922786713,"147":-0.2873518466949463,"148":2.119418144226074,"149":-0.8468750715255737,"150":0.45868977904319763,"151":2.6241209506988525,"152":-0.016108477488160133,"153":-0.7485093474388123,"154":1.1751500368118286,"155":3.216729164123535,"156":-1.1049184799194336,"157":-3.2650296688079834,"158":-0.8051334619522095,"159":0.7957373261451721,"160":1.9106661081314087,"161":0.6950790882110596,"162":-3.556908130645752,"163":0.8263041973114014,"164":-2.0392258167266846,"165":3.5687403678894043,"166":2.921900749206543,"167":1.9430139064788818,"168":0.9177420735359192,"169":2.3600211143493652,"170":1.8227823972702026,"171":0.7484796643257141,"172":-0.451938271522522,"173":-2.909149408340454,"174":-1.5476815700531006,"175":1.0187994241714478,"176":-0.4530516564846039,"177":0.4580569565296173,"178":-1.3759912252426147,"179":-2.3918004035949707,"180":-1.8061727285385132,"181":1.3659451007843018,"182":-1.3068684339523315,"183":-0.43139025568962097,"184":-3.753408193588257,"185":-1.4294179677963257,"186":1.6410963535308838,"187":4.032747268676758,"188":-1.6767321825027466,"189":-0.3394933342933655,"190":0.45790424942970276,"191":1.9674837589263916,"192":0.9861434698104858,"193":2.133967876434326,"194":-0.4022996723651886,"195":0.5870981812477112,"196":1.109330654144287,"197":-2.234936475753784,"198":2.229550361633301,"199":-1.115407943725586,"200":2.257815361022949,"201":-0.9321104884147644,"202":-3.37174129486084,"203":-2.5482757091522217,"204":-0.690972626209259,"205":0.6352015733718872,"206":0.27382367849349976,"207":-1.773292064666748,"208":-1.1169300079345703,"209":0.5838612914085388,"210":-1.2595577239990234,"211":0.9084441661834717,"212":3.2610905170440674,"213":4.3482985496521,"214":-0.5481272339820862,"215":0.868495762348175,"216":0.515684187412262,"217":1.7707587480545044,"218":0.06686138361692429,"219":-0.13445575535297394,"220":0.6835737228393555,"221":-2.7170259952545166,"222":-2.187032461166382,"223":-1.656644344329834,"224":3.8934249877929688,"225":2.708625316619873,"226":0.785335898399353,"227":-0.11417793482542038,"228":-0.19007202982902527,"229":-1.7602105140686035,"230":0.12960165739059448,"231":-0.1623612642288208,"232":1.350498080253601,"233":1.13275945186615,"234":1.3937302827835083,"235":0.26987215876579285,"236":0.5727026462554932,"237":-2.9446589946746826,"238":-0.022882744669914246,"239":-1.5436251163482666,"240":1.9757741689682007,"241":0.2065422534942627,"242":2.090040445327759,"243":-1.086375117301941,"244":-3.5872769355773926,"245":-0.8422508239746094,"246":1.4235661029815674,"247":-0.6536783576011658,"248":1.2844902276992798,"249":2.8186228275299072,"250":-0.5840749144554138,"251":-2.793896436691284,"252":0.04272431880235672,"253":2.1603314876556396,"254":-0.9012433886528015,"255":-0.8616093993186951,"256":-0.9422149062156677,"257":-0.8198703527450562,"258":-4.530961513519287,"259":-0.731801450252533}},"inputHidden":{"rows":20,"columns":20,"weights":{"0":-0.8692024946212769,"1":-0.4959995746612549,"2":-0.9859534502029419,"3":-0.47534459829330444,"4":-0.3416907787322998,"5":0.7721979022026062,"6":3.3476808071136475,"7":-0.3306942582130432,"8":-0.44005194306373596,"9":0.5556238293647766,"10":0.5099349021911621,"11":-0.24683213233947754,"12":-1.6359330415725708,"13":0.9765248894691467,"14":-0.657134473323822,"15":-0.8861407041549683,"16":-0.7808389067649841,"17":-0.5414064526557922,"18":0.07656530290842056,"19":1.718050479888916,"20":0.9126259684562683,"21":-0.6027213931083679,"22":0.05400418862700462,"23":-0.7279773354530334,"24":-0.17907674610614777,"25":-0.39921581745147705,"26":1.6484100818634033,"27":2.753549814224243,"28":0.36177778244018555,"29":-1.4605677127838135,"30":1.7834359407424927,"31":0.014569204300642014,"32":-0.7002177238464355,"33":1.0488184690475464,"34":0.6768901944160461,"35":-1.4412047863006592,"36":1.4430720806121826,"37":0.8442899584770203,"38":-1.6564438343048096,"39":-1.5065079927444458,"40":0.7285257577896118,"41":-0.7525104284286499,"42":1.6422936916351318,"43":0.3432401120662689,"44":1.3324475288391113,"45":3.5356943607330322,"46":-1.1194971799850464,"47":1.69422447681427,"48":2.191305637359619,"49":2.5347790718078613,"50":0.4710885286331177,"51":1.3018443584442139,"52":-0.5196202993392944,"53":0.5580182671546936,"54":0.8260464668273926,"55":1.4247735738754272,"56":-0.13282418251037598,"57":-1.2526814937591553,"58":1.5815179347991943,"59":0.5596321821212769,"60":-2.0775933265686035,"61":-0.5158184170722961,"62":-0.1902747005224228,"63":-1.7894697189331055,"64":2.36303448677063,"65":-3.062340497970581,"66":1.0781059265136719,"67":1.0262277126312256,"68":-0.1169978603720665,"69":2.0789527893066406,"70":0.1266345977783203,"71":1.5669801235198975,"72":0.1570504605770111,"73":-0.14225374162197113,"74":-1.7367998361587524,"75":-3.614037275314331,"76":-0.5887848734855652,"77":-4.929357051849365,"78":2.8656389713287354,"79":-1.143711805343628,"80":-2.271012783050537,"81":-0.27317100763320923,"82":-1.3480817079544067,"83":-0.706460177898407,"84":1.5250532627105713,"85":2.655062437057495,"86":3.572827100753784,"87":-0.2636541724205017,"88":0.9634523987770081,"89":-0.9084957242012024,"90":-3.286724328994751,"91":-0.19985385239124298,"92":-0.13895688951015472,"93":0.44193243980407715,"94":-0.1355973333120346,"95":0.11536015570163727,"96":2.7572710514068604,"97":2.3639752864837646,"98":-1.125158429145813,"99":1.4683055877685547,"100":-0.31102484464645386,"101":-3.1185872554779053,"102":2.2258827686309814,"103":0.1857895702123642,"104":-2.546436071395874,"105":-1.4022828340530396,"106":3.4126875400543213,"107":0.3167898654937744,"108":-1.4046238660812378,"109":1.6819573640823364,"110":4.246114253997803,"111":-1.377124309539795,"112":2.7716286182403564,"113":2.182191848754883,"114":1.435409665107727,"115":0.6185274124145508,"116":-3.4879627227783203,"117":-3.7638790607452393,"118":-0.0984201431274414,"119":-0.7980703115463257,"120":0.39610913395881653,"121":2.282315492630005,"122":-3.047335624694824,"123":-0.2580728828907013,"124":-0.49993348121643066,"125":-0.23071075975894928,"126":-1.7956244945526123,"127":1.863639235496521,"128":-2.0551178455352783,"129":0.9551018476486206,"130":-6.251145362854004,"131":2.8837478160858154,"132":1.4220479726791382,"133":0.4056440591812134,"134":0.08288434892892838,"135":1.5662130117416382,"136":3.9277350902557373,"137":-0.26991018652915955,"138":-3.599912166595459,"139":-1.74175226688385,"140":-0.4180243909358978,"141":0.4682031273841858,"142":0.8879571557044983,"143":-1.009344220161438,"144":1.2728108167648315,"145":-0.8406841158866882,"146":-2.498009204864502,"147":2.284067153930664,"148":-2.050473690032959,"149":-0.042606793344020844,"150":-2.052992105484009,"151":0.6418358087539673,"152":0.14993412792682648,"153":-1.4301272630691528,"154":-0.5581406354904175,"155":-2.856003761291504,"156":0.49043285846710205,"157":0.8702567219734192,"158":-0.9408706426620483,"159":1.9630589485168457,"160":-6.047956943511963,"161":-4.395903587341309,"162":4.493236064910889,"163":-4.270309925079346,"164":2.0054898262023926,"165":-2.830087900161743,"166":0.06253162026405334,"167":-1.3602344989776611,"168":-6.275674819946289,"169":4.53903865814209,"170":5.973949909210205,"171":-2.077451229095459,"172":3.5924766063690186,"173":1.188889741897583,"174":1.6403534412384033,"175":0.9808765053749084,"176":0.313711941242218,"177":-1.1955913305282593,"178":1.6595277786254883,"179":2.4083049297332764,"180":-4.085373878479004,"181":-2.098147392272949,"182":1.642476201057434,"183":-0.2681177258491516,"184":-2.3222451210021973,"185":0.8229219913482666,"186":2.1253747940063477,"187":-4.858294486999512,"188":2.5406341552734375,"189":-1.6130000352859497,"190":-0.13904975354671478,"191":0.7487710118293762,"192":7.043290138244629,"193":1.5819823741912842,"194":-2.893298864364624,"195":0.43516555428504944,"196":0.8493884205818176,"197":1.4851876497268677,"198":-0.97020423412323,"199":2.3394081592559814,"200":-1.0246777534484863,"201":2.004066228866577,"202":-1.6680370569229126,"203":1.368605375289917,"204":-0.8577808737754822,"205":3.2482824325561523,"206":-1.989659309387207,"207":1.6421992778778076,"208":-0.9215318560600281,"209":-0.5316669344902039,"210":-3.52803897857666,"211":0.5452073812484741,"212":0.1684250384569168,"213":-1.3206043243408203,"214":-0.9128009676933289,"215":1.5563511848449707,"216":3.2836170196533203,"217":2.6465742588043213,"218":2.042121171951294,"219":-2.5097408294677734,"220":-0.8035476207733154,"221":-2.224886178970337,"222":0.6935534477233887,"223":-3.2172977924346924,"224":-0.39773935079574585,"225":-1.7615894079208374,"226":2.0496721267700195,"227":-0.6953349113464355,"228":-2.578584671020508,"229":0.8269814848899841,"230":0.8081921935081482,"231":-0.9961903095245361,"232":0.48177778720855713,"233":-1.1384950876235962,"234":3.9529926776885986,"235":-1.5864713191986084,"236":-1.7261450290679932,"237":-1.8645820617675781,"238":-1.350509762763977,"239":4.674839019775391,"240":-0.27252084016799927,"241":0.48126888275146484,"242":-1.0135383605957031,"243":-2.218168258666992,"244":0.8190850615501404,"245":1.615644097328186,"246":0.6566796898841858,"247":0.7561032772064209,"248":-0.699936032295227,"249":0.23055684566497803,"250":-0.49832281470298767,"251":1.5478993654251099,"252":0.481435626745224,"253":-0.25250959396362305,"254":0.36962077021598816,"255":-4.491771697998047,"256":-1.3173108100891113,"257":0.2938777208328247,"258":-0.6052971482276917,"259":1.6323785781860352,"260":-0.3429756462574005,"261":0.2568671405315399,"262":-0.9401323795318604,"263":-1.0446398258209229,"264":2.420668125152588,"265":1.466893196105957,"266":-3.3785834312438965,"267":0.17900238931179047,"268":1.874163269996643,"269":-1.7720906734466553,"270":-3.1613850593566895,"271":-0.7825689911842346,"272":1.042213797569275,"273":1.0942155122756958,"274":-0.1947495937347412,"275":-0.09360729157924652,"276":1.108668565750122,"277":2.1299126148223877,"278":-1.124359369277954,"279":-0.5237097144126892,"280":-0.5457776784896851,"281":2.7367260456085205,"282":0.754724383354187,"283":-3.689100742340088,"284":0.394338995218277,"285":1.5633968114852905,"286":-0.5179122686386108,"287":-0.12187931686639786,"288":0.664996325969696,"289":1.264158844947815,"290":-2.4984750747680664,"291":-1.5328123569488525,"292":0.5173072814941406,"293":-0.8231914639472961,"294":-0.5194512605667114,"295":-0.23206764459609985,"296":0.6108296513557434,"297":1.5075962543487549,"298":-1.8145475387573242,"299":1.0043084621429443,"300":-0.3903859853744507,"301":1.1015095710754395,"302":0.40809258818626404,"303":-0.8795972466468811,"304":-3.847156524658203,"305":2.503095865249634,"306":3.2659876346588135,"307":-0.48820367455482483,"308":1.5073246955871582,"309":-0.42058756947517395,"310":-0.3476583659648895,"311":0.12673313915729523,"312":-1.196375846862793,"313":-0.254204660654068,"314":-1.3826161623001099,"315":0.6763333678245544,"316":0.35964062809944153,"317":-0.3437688648700714,"318":-0.3788163661956787,"319":-0.8885434865951538,"320":0.43492984771728516,"321":0.9050490260124207,"322":-0.32866981625556946,"323":1.3843454122543335,"324":-1.1019152402877808,"325":0.1174827292561531,"326":-0.9971523284912109,"327":3.8092451095581055,"328":-0.05658433586359024,"329":2.567201852798462,"330":1.5324668884277344,"331":-1.3230472803115845,"332":2.4087448120117188,"333":0.7408565282821655,"334":-0.6813791990280151,"335":0.6859146952629089,"336":1.2742446660995483,"337":0.19470660388469696,"338":2.846745729446411,"339":2.027027130126953,"340":-0.14889255166053772,"341":-1.7826930284500122,"342":2.1263339519500732,"343":3.4901254177093506,"344":3.4126415252685547,"345":1.5554249286651611,"346":-0.43886566162109375,"347":-3.90561580657959,"348":0.35989439487457275,"349":-0.9399670958518982,"350":0.9301508665084839,"351":-1.2263853549957275,"352":-0.1397441029548645,"353":0.8910779356956482,"354":1.9898334741592407,"355":-2.1012394428253174,"356":-2.4610421657562256,"357":0.7873108983039856,"358":-0.44915977120399475,"359":0.7577146887779236,"360":3.1715354919433594,"361":1.1678600311279297,"362":-2.85443377494812,"363":-2.6223068237304688,"364":2.1202330589294434,"365":-0.8961344361305237,"366":0.2514868974685669,"367":1.4551029205322266,"368":0.2515745460987091,"369":2.0350427627563477,"370":-1.7410504817962646,"371":0.4972755014896393,"372":-3.048295497894287,"373":-3.3645477294921875,"374":-0.4035107493400574,"375":-1.1953701972961426,"376":-1.1519036293029785,"377":0.09404364973306656,"378":-3.9912891387939453,"379":2.8304197788238525,"380":-0.48823654651641846,"381":0.996937096118927,"382":-2.482879400253296,"383":-3.4566946029663086,"384":-3.628476142883301,"385":-0.43857136368751526,"386":4.847708702087402,"387":4.067864894866943,"388":-1.1154625415802002,"389":-0.3579537272453308,"390":2.8431615829467773,"391":-2.485963821411133,"392":-0.792409360408783,"393":0.10357774049043655,"394":0.1075243130326271,"395":0.43681952357292175,"396":0.37363550066947937,"397":-1.712275743484497,"398":1.617746353149414,"399":-1.7569409608840942}},"inputBias":{"rows":20,"columns":1,"weights":{"0":-1.0638470649719238,"1":-1.0640733242034912,"2":-1.2077187299728394,"3":-0.7649267911911011,"4":-1.0012142658233643,"5":-3.0314199924468994,"6":0.15873920917510986,"7":0.08041870594024658,"8":0.2960849702358246,"9":-0.10614179819822311,"10":2.1322550773620605,"11":-0.49792352318763733,"12":-1.3676677942276,"13":0.4954022169113159,"14":-0.7800623178482056,"15":-2.0507097244262695,"16":-2.6042640209198,"17":0.34195658564567566,"18":-0.9309036731719971,"19":-0.7705641984939575}},"forgetMatrix":{"rows":20,"columns":13,"weights":{"0":-0.3128853440284729,"1":-1.5432047843933105,"2":-0.3031596839427948,"3":-2.4586985111236572,"4":2.0250048637390137,"5":-0.26134055852890015,"6":0.6030467748641968,"7":4.113470077514648,"8":0.6809166669845581,"9":-2.137017011642456,"10":2.024428606033325,"11":-1.0284382104873657,"12":0.5331476926803589,"13":0.9896146655082703,"14":1.1038289070129395,"15":0.8132696151733398,"16":2.073122262954712,"17":-1.6759111881256104,"18":2.1999120712280273,"19":-0.05680819973349571,"20":1.507954716682434,"21":-1.7071640491485596,"22":1.722585916519165,"23":-1.9898639917373657,"24":-1.3746061325073242,"25":0.008917615748941898,"26":-1.464083194732666,"27":0.8593180179595947,"28":-0.4310176372528076,"29":-0.23868806660175323,"30":-1.4417821168899536,"31":0.06506486982107162,"32":-2.0065670013427734,"33":-1.9967620372772217,"34":-0.7019490003585815,"35":1.19808828830719,"36":1.5682332515716553,"37":0.1611933559179306,"38":-1.1358729600906372,"39":-0.1661970615386963,"40":1.5307905673980713,"41":-1.2593914270401,"42":-0.7152343392372131,"43":1.3143702745437622,"44":2.914252758026123,"45":-0.505030632019043,"46":1.5775322914123535,"47":1.5591144561767578,"48":1.134765863418579,"49":0.7867957353591919,"50":0.6942836046218872,"51":-0.26675844192504883,"52":-0.9377497434616089,"53":1.2907224893569946,"54":-0.4371439516544342,"55":0.029506266117095947,"56":-0.24103409051895142,"57":1.409595251083374,"58":-1.6411429643630981,"59":0.10513249039649963,"60":-0.6492287516593933,"61":1.4752438068389893,"62":0.04151449352502823,"63":0.8774411678314209,"64":-0.7827578186988831,"65":1.0974621772766113,"66":-1.3233528137207031,"67":1.5373597145080566,"68":-0.5695439577102661,"69":0.9730879068374634,"70":1.9381190538406372,"71":-1.4808741807937622,"72":-1.1520838737487793,"73":1.3172168731689453,"74":-0.695489764213562,"75":1.999181866645813,"76":1.686655044555664,"77":3.526132345199585,"78":-2.151820182800293,"79":-2.834559440612793,"80":-2.292301654815674,"81":1.1238317489624023,"82":-0.5420896410942078,"83":-0.3082306385040283,"84":-2.073718309402466,"85":0.2046326994895935,"86":0.8689159750938416,"87":-1.05355966091156,"88":0.03722948208451271,"89":1.9284696578979492,"90":1.108933687210083,"91":-0.5578373074531555,"92":1.506468415260315,"93":0.3637487590312958,"94":-1.2175546884536743,"95":-0.9988548755645752,"96":0.34561753273010254,"97":0.9297278523445129,"98":2.2870049476623535,"99":2.7769815921783447,"100":-0.29542842507362366,"101":-1.028971791267395,"102":-1.4342097043991089,"103":1.2396183013916016,"104":-0.5723803639411926,"105":-0.4015474021434784,"106":4.813505172729492,"107":-0.08179401606321335,"108":0.4898609220981598,"109":1.5603891611099243,"110":0.8249507546424866,"111":1.432519793510437,"112":0.9115511178970337,"113":2.1726746559143066,"114":-2.965545415878296,"115":0.9136863946914673,"116":0.9302909970283508,"117":-2.581468343734741,"118":1.9982730150222778,"119":-1.7650611400604248,"120":-0.025134684517979622,"121":-0.4936326742172241,"122":-2.3497977256774902,"123":1.115496277809143,"124":2.252333402633667,"125":0.24254979193210602,"126":0.17865118384361267,"127":-2.588977336883545,"128":1.0190508365631104,"129":-2.3507421016693115,"130":0.9114857912063599,"131":0.7054582834243774,"132":2.1731531620025635,"133":-2.614123821258545,"134":-0.7450655102729797,"135":-0.7692849040031433,"136":2.2269794940948486,"137":-2.306490898132324,"138":0.15681296586990356,"139":-0.22785210609436035,"140":-2.3758387565612793,"141":-2.4847919940948486,"142":-0.924656093120575,"143":0.20461811125278473,"144":-0.07080960273742676,"145":0.28510501980781555,"146":-2.783980131149292,"147":0.12454305589199066,"148":-2.2132222652435303,"149":1.7644747495651245,"150":0.5151090025901794,"151":0.2657454311847687,"152":-1.568705439567566,"153":-1.0882823467254639,"154":-0.877936840057373,"155":0.05460615083575249,"156":-1.158042073249817,"157":1.3819127082824707,"158":-1.6961891651153564,"159":0.20295336842536926,"160":-2.402975082397461,"161":1.0311964750289917,"162":-1.8801376819610596,"163":1.1164112091064453,"164":-1.7412188053131104,"165":1.1182215213775635,"166":0.19596827030181885,"167":1.2725375890731812,"168":-1.38669753074646,"169":3.4664499759674072,"170":0.9056028723716736,"171":0.9551588296890259,"172":-0.8249883055686951,"173":-2.783996343612671,"174":-0.42025917768478394,"175":1.5296733379364014,"176":0.8746210336685181,"177":1.4437376260757446,"178":0.36458104848861694,"179":-1.5455044507980347,"180":-0.4955117106437683,"181":1.1125520467758179,"182":0.061257511377334595,"183":-0.5807827115058899,"184":-1.4213968515396118,"185":-0.8338358402252197,"186":1.397182583808899,"187":-0.31308698654174805,"188":-0.7759280800819397,"189":0.7958248853683472,"190":-0.5191194415092468,"191":0.26216256618499756,"192":0.9274673461914062,"193":1.2002084255218506,"194":-0.10373706370592117,"195":2.5593743324279785,"196":-0.20205670595169067,"197":2.0799312591552734,"198":-0.9539845585823059,"199":-0.31116899847984314,"200":-0.8860988616943359,"201":0.8833050727844238,"202":0.01114986464381218,"203":0.9104321599006653,"204":0.1707761138677597,"205":-1.1773953437805176,"206":-0.1755196899175644,"207":1.6729326248168945,"208":-1.7346367835998535,"209":0.6605733036994934,"210":0.7031466960906982,"211":-1.9821275472640991,"212":-0.5606966018676758,"213":-0.6566795706748962,"214":0.8816789984703064,"215":0.18600253760814667,"216":-3.3341150283813477,"217":0.8762984871864319,"218":1.4858726263046265,"219":-0.4283468723297119,"220":-1.7222135066986084,"221":-1.00065279006958,"222":-1.1497721672058105,"223":-0.5342954993247986,"224":1.3290081024169922,"225":-0.25143247842788696,"226":2.1902081966400146,"227":-2.282119035720825,"228":-0.915176272392273,"229":-0.9771503210067749,"230":3.006357192993164,"231":2.4486403465270996,"232":-0.8006141185760498,"233":-1.20518159866333,"234":1.5855954885482788,"235":-1.0321130752563477,"236":-0.8104979991912842,"237":-1.2102324962615967,"238":1.841740369796753,"239":2.100078821182251,"240":-1.1536989212036133,"241":0.3699713349342346,"242":2.7415411472320557,"243":1.680591344833374,"244":1.0905516147613525,"245":-1.129225254058838,"246":3.4263832569122314,"247":1.245178461074829,"248":1.9786224365234375,"249":0.19916479289531708,"250":1.0152862071990967,"251":-0.9509732127189636,"252":1.8617353439331055,"253":-0.32870030403137207,"254":-3.152660369873047,"255":1.3251979351043701,"256":1.2827715873718262,"257":0.683408796787262,"258":-2.8588309288024902,"259":0.0942240059375763}},"forgetHidden":{"rows":20,"columns":20,"weights":{"0":-1.379671335220337,"1":-0.1806904822587967,"2":0.14698916673660278,"3":-0.36100250482559204,"4":-0.11084598302841187,"5":0.7963054776191711,"6":-1.4107918739318848,"7":0.4403682053089142,"8":0.695574939250946,"9":-1.3037958145141602,"10":1.7383768558502197,"11":1.9211543798446655,"12":-2.38136887550354,"13":-0.2629954516887665,"14":0.16089732944965363,"15":0.34326601028442383,"16":-0.5396450161933899,"17":-0.08218549937009811,"18":1.6691911220550537,"19":-0.9906967282295227,"20":0.7344162464141846,"21":0.9892125129699707,"22":-0.7687832117080688,"23":0.5809705257415771,"24":-0.6841554641723633,"25":-1.116397500038147,"26":2.170630931854248,"27":0.7765719294548035,"28":-0.42737358808517456,"29":0.3198681175708771,"30":1.592986822128296,"31":-1.193266749382019,"32":0.29987412691116333,"33":1.0120058059692383,"34":0.263261079788208,"35":-0.7101196050643921,"36":-0.7847801446914673,"37":1.401750087738037,"38":1.0579208135604858,"39":-2.0904617309570312,"40":-1.1895023584365845,"41":1.055181860923767,"42":-0.9093313217163086,"43":0.28597840666770935,"44":-0.17472557723522186,"45":-0.696108877658844,"46":-3.435783863067627,"47":-0.6984366178512573,"48":-0.674788773059845,"49":1.9167916774749756,"50":-2.578573703765869,"51":-1.5684313774108887,"52":1.9476628303527832,"53":-1.3249540328979492,"54":-0.4577161371707916,"55":-0.313779354095459,"56":0.35068267583847046,"57":-1.3182448148727417,"58":-1.661479115486145,"59":0.3434663414955139,"60":-3.4704883098602295,"61":-1.244406819343567,"62":1.718229055404663,"63":-0.8187347054481506,"64":-5.946885585784912,"65":1.0871299505233765,"66":4.014228343963623,"67":0.14360664784908295,"68":-4.48756217956543,"69":1.730884075164795,"70":0.3165144622325897,"71":-0.24709486961364746,"72":-0.3583938479423523,"73":-0.46622878313064575,"74":0.6751968264579773,"75":0.04513237252831459,"76":0.43079182505607605,"77":1.3653768301010132,"78":0.508777379989624,"79":1.6102248430252075,"80":1.066882848739624,"81":1.1600106954574585,"82":0.8432127833366394,"83":-0.8456279039382935,"84":0.19301608204841614,"85":0.48018336296081543,"86":1.143955111503601,"87":-0.1840287297964096,"88":-0.5809382200241089,"89":-0.8202481269836426,"90":-0.2198881059885025,"91":-0.4491993486881256,"92":0.8577924370765686,"93":-1.973504662513733,"94":-0.010475892573595047,"95":0.20590150356292725,"96":0.20228612422943115,"97":0.14160023629665375,"98":-1.0293320417404175,"99":-0.2646360695362091,"100":-0.3052854835987091,"101":-1.5852665901184082,"102":1.2755464315414429,"103":0.11885333806276321,"104":0.6763891577720642,"105":0.9661846160888672,"106":-0.08923733979463577,"107":1.1164648532867432,"108":0.6274415254592896,"109":-1.0731641054153442,"110":-0.15537458658218384,"111":-0.7553626298904419,"112":-0.47842544317245483,"113":2.120199203491211,"114":0.3563166856765747,"115":-1.360037088394165,"116":-1.0388538837432861,"117":2.0795226097106934,"118":-0.06142168492078781,"119":1.5521069765090942,"120":2.208454132080078,"121":0.8821027278900146,"122":-2.36614727973938,"123":0.7760099768638611,"124":0.46478894352912903,"125":1.7882198095321655,"126":0.022281326353549957,"127":-0.1808224320411682,"128":3.7065980434417725,"129":-1.6715162992477417,"130":0.1333608776330948,"131":-0.6628343462944031,"132":0.10413949936628342,"133":-2.13985538482666,"134":0.4540000557899475,"135":-0.7450299263000488,"136":-0.05429970100522041,"137":1.3153927326202393,"138":-1.2648483514785767,"139":0.9265600442886353,"140":-0.492120623588562,"141":0.7929185628890991,"142":-1.7368220090866089,"143":-0.20994484424591064,"144":0.06835000962018967,"145":1.3666208982467651,"146":1.3932032585144043,"147":0.15252810716629028,"148":0.7787249684333801,"149":0.7127532362937927,"150":-0.5737512707710266,"151":0.9237944483757019,"152":-0.373329222202301,"153":0.16373714804649353,"154":-1.5647391080856323,"155":1.6465585231781006,"156":0.8042551875114441,"157":1.9126325845718384,"158":-1.1256442070007324,"159":-0.7362182140350342,"160":0.38663846254348755,"161":-0.6283085346221924,"162":-0.12228640168905258,"163":-0.982073962688446,"164":1.8884488344192505,"165":1.7160305976867676,"166":-2.2557222843170166,"167":-0.6302055716514587,"168":-2.2458231449127197,"169":1.5174498558044434,"170":0.008788414299488068,"171":-0.4669624865055084,"172":3.220442056655884,"173":-0.2898145318031311,"174":0.9649569988250732,"175":-0.8487269282341003,"176":0.36809882521629333,"177":0.22582288086414337,"178":-0.5831874012947083,"179":-0.13538527488708496,"180":0.05732462927699089,"181":-1.3415249586105347,"182":-1.148858666419983,"183":-1.8692463636398315,"184":0.3619014024734497,"185":1.6937350034713745,"186":0.2611076831817627,"187":-0.1264362633228302,"188":0.4545489251613617,"189":4.1022162437438965,"190":-2.426086664199829,"191":1.8754427433013916,"192":-0.5859993696212769,"193":-1.3177530765533447,"194":0.11078739166259766,"195":1.292473316192627,"196":0.260405957698822,"197":-0.16730573773384094,"198":-0.07010388374328613,"199":-1.2153364419937134,"200":0.7251272797584534,"201":0.3401123583316803,"202":-0.8782519102096558,"203":-1.155047059059143,"204":-1.265462040901184,"205":0.24152565002441406,"206":-0.7210760116577148,"207":-0.3653873801231384,"208":0.34399595856666565,"209":0.7136767506599426,"210":-0.6652992963790894,"211":-0.9196898937225342,"212":-0.16095580160617828,"213":-0.5155704021453857,"214":-0.0835791826248169,"215":-1.1884210109710693,"216":1.899612545967102,"217":1.5841995477676392,"218":-0.01295663695782423,"219":-1.3780810832977295,"220":-0.6185978055000305,"221":0.6908780336380005,"222":-1.5723156929016113,"223":-0.3205968141555786,"224":-0.6066918969154358,"225":-0.036519091576337814,"226":-2.5585124492645264,"227":-0.8693246841430664,"228":0.270251601934433,"229":0.40368127822875977,"230":-0.2372397780418396,"231":0.28771349787712097,"232":-0.6694943904876709,"233":-0.5670663118362427,"234":0.10159394890069962,"235":1.321142554283142,"236":0.590327262878418,"237":1.143845796585083,"238":0.32499992847442627,"239":-0.06121900677680969,"240":0.5700814127922058,"241":2.3371987342834473,"242":-0.8508399128913879,"243":-0.5153645277023315,"244":-1.2808011770248413,"245":-0.09795083850622177,"246":-0.07579069584608078,"247":0.11923935264348984,"248":0.45286989212036133,"249":-1.4120022058486938,"250":-1.049424409866333,"251":-0.17098355293273926,"252":0.04442371428012848,"253":0.12357526272535324,"254":-0.21094928681850433,"255":1.354616403579712,"256":0.2436700314283371,"257":-1.768172025680542,"258":1.0313726663589478,"259":-0.4587945342063904,"260":-5.613920211791992,"261":-1.3912550210952759,"262":2.8111979961395264,"263":-1.0839009284973145,"264":-0.7917191386222839,"265":1.4910554885864258,"266":0.5026532411575317,"267":2.0228238105773926,"268":-1.8658058643341064,"269":1.6000536680221558,"270":0.5984318256378174,"271":0.9199417233467102,"272":-0.1369299739599228,"273":2.274904489517212,"274":-0.45116695761680603,"275":1.5428353548049927,"276":1.1370179653167725,"277":1.549903154373169,"278":-2.9169843196868896,"279":-2.795295238494873,"280":-0.6831665635108948,"281":-0.2545536458492279,"282":-1.235702395439148,"283":0.6237279176712036,"284":-0.6950547695159912,"285":0.23121938109397888,"286":-1.5282038450241089,"287":0.22593091428279877,"288":-0.9540960192680359,"289":1.7315353155136108,"290":-0.8748320937156677,"291":-1.8013875484466553,"292":0.2602594792842865,"293":0.40868017077445984,"294":0.01772090420126915,"295":-0.3195394277572632,"296":0.675879180431366,"297":1.1723318099975586,"298":0.5943923592567444,"299":-0.9750091433525085,"300":-1.9517488479614258,"301":1.4236520528793335,"302":-1.4200212955474854,"303":-0.33085501194000244,"304":-1.5021371841430664,"305":0.5227786898612976,"306":-1.3818285465240479,"307":-0.5973331928253174,"308":-0.10346559435129166,"309":0.8118700981140137,"310":-0.8892936110496521,"311":1.0438885688781738,"312":-0.9976385235786438,"313":-0.9376974105834961,"314":-1.2833067178726196,"315":0.0716630145907402,"316":0.8100125789642334,"317":0.6676378846168518,"318":-0.7456889152526855,"319":-1.7456014156341553,"320":-2.0214648246765137,"321":0.5961775183677673,"322":1.0035426616668701,"323":0.6768789887428284,"324":0.2729617953300476,"325":2.021287441253662,"326":-0.6203874945640564,"327":2.2576799392700195,"328":3.502577781677246,"329":-0.07639288157224655,"330":-1.4091154336929321,"331":-0.19695143401622772,"332":1.036190390586853,"333":-1.5329184532165527,"334":-0.25841179490089417,"335":0.08381139487028122,"336":-0.7376300096511841,"337":-1.0159838199615479,"338":-2.5037081241607666,"339":-1.978193759918213,"340":1.4043649435043335,"341":2.285391330718994,"342":-1.065807819366455,"343":-0.7657071948051453,"344":-1.0267728567123413,"345":0.428885817527771,"346":1.0349876880645752,"347":-0.8372558355331421,"348":1.4777356386184692,"349":-0.7981477975845337,"350":-0.039548229426145554,"351":1.9277746677398682,"352":-1.222665786743164,"353":-0.7550399899482727,"354":-0.8860466480255127,"355":-0.6239709854125977,"356":0.4342907667160034,"357":-0.2584516108036041,"358":0.8034507632255554,"359":-1.008729338645935,"360":-2.770557403564453,"361":0.026954546570777893,"362":0.9846076965332031,"363":1.9101697206497192,"364":-1.730765461921692,"365":2.2152037620544434,"366":2.6196701526641846,"367":0.1526576727628708,"368":-0.10087364912033081,"369":1.10844087600708,"370":0.49766942858695984,"371":-2.7310268878936768,"372":0.14999616146087646,"373":-1.9093017578125,"374":-0.3476961553096771,"375":1.3295049667358398,"376":0.7770445942878723,"377":1.1704914569854736,"378":1.8280630111694336,"379":-1.0969988107681274,"380":-1.066359519958496,"381":4.9082932472229,"382":-0.33442991971969604,"383":-0.450529545545578,"384":0.6345371007919312,"385":2.4703729152679443,"386":1.915199875831604,"387":2.127795457839966,"388":0.248484268784523,"389":-0.13517694175243378,"390":1.8427242040634155,"391":-1.1656992435455322,"392":2.3940634727478027,"393":1.4534497261047363,"394":-1.784385323524475,"395":1.8661593198776245,"396":1.5839080810546875,"397":1.9347436428070068,"398":0.9362519383430481,"399":-2.7120893001556396}},"forgetBias":{"rows":20,"columns":1,"weights":{"0":0,"1":0,"2":0,"3":0,"4":0,"5":0,"6":0,"7":0,"8":0,"9":0,"10":0,"11":0,"12":0,"13":0,"14":0,"15":0,"16":0,"17":0,"18":0,"19":0}},"outputMatrix":{"rows":20,"columns":13,"weights":{"0":-0.946815013885498,"1":1.0440306663513184,"2":-0.5361028909683228,"3":-5.84617805480957,"4":1.462144374847412,"5":-1.989121913909912,"6":0.7943329215049744,"7":-0.8305332660675049,"8":1.4363161325454712,"9":1.4776113033294678,"10":0.5909028649330139,"11":-0.47101911902427673,"12":-0.5796118974685669,"13":0.7553213834762573,"14":0.5159984230995178,"15":1.6270830631256104,"16":-2.393347978591919,"17":-1.0214952230453491,"18":-1.1205010414123535,"19":3.971146583557129,"20":-1.2461190223693848,"21":-0.4726898670196533,"22":-0.027973303571343422,"23":-4.338766098022461,"24":-1.2103488445281982,"25":-0.815543532371521,"26":2.8776447772979736,"27":1.5682978630065918,"28":-0.3841058909893036,"29":-2.196678876876831,"30":0.7593949437141418,"31":0.2238820642232895,"32":0.8309701681137085,"33":0.001871295040473342,"34":4.4379143714904785,"35":-0.23359517753124237,"36":-2.5365312099456787,"37":-0.2401108294725418,"38":3.9897713661193848,"39":-2.650770664215088,"40":1.4521369934082031,"41":2.4213461875915527,"42":2.035266399383545,"43":-0.13337895274162292,"44":1.552934169769287,"45":1.5932127237319946,"46":-3.124368667602539,"47":-1.1420185565948486,"48":1.5863467454910278,"49":-2.176823616027832,"50":1.3494794368743896,"51":-0.4562971591949463,"52":1.3181638717651367,"53":-0.049719274044036865,"54":-1.7243647575378418,"55":-0.2944851815700531,"56":0.4198218286037445,"57":1.3395366668701172,"58":0.01017320342361927,"59":-2.047550916671753,"60":0.42053595185279846,"61":-0.19026856124401093,"62":1.3565832376480103,"63":-0.583238959312439,"64":1.1099363565444946,"65":-1.1809488534927368,"66":1.2166013717651367,"67":0.816217303276062,"68":2.5409786701202393,"69":0.0239202082157135,"70":-0.593826949596405,"71":-0.10671991109848022,"72":0.4094007611274719,"73":-1.6868617534637451,"74":0.8528741598129272,"75":2.600294589996338,"76":0.3571023941040039,"77":-2.356996774673462,"78":-0.8713042736053467,"79":2.000657081604004,"80":-0.29049575328826904,"81":-2.2348408699035645,"82":-0.4826180636882782,"83":-0.6778730154037476,"84":2.325727939605713,"85":2.627697229385376,"86":-0.5903030037879944,"87":1.5215712785720825,"88":-3.1203196048736572,"89":-0.630103349685669,"90":-1.2091907262802124,"91":-1.337193489074707,"92":-0.3676660358905792,"93":0.895950198173523,"94":2.6114602088928223,"95":-1.6331816911697388,"96":-1.2254306077957153,"97":0.779324471950531,"98":2.1141035556793213,"99":0.5305384993553162,"100":-0.9060376882553101,"101":-1.6743454933166504,"102":2.3318729400634766,"103":-0.9853048324584961,"104":-1.663257360458374,"105":0.8626739382743835,"106":0.8443981409072876,"107":-0.6231609582901001,"108":4.1680755615234375,"109":2.78399920463562,"110":-1.010500192642212,"111":-1.0772088766098022,"112":-1.390807867050171,"113":2.7459840774536133,"114":-1.8169682025909424,"115":1.2210170030593872,"116":-1.2679601907730103,"117":-2.7020888328552246,"118":0.7555649876594543,"119":-2.214625120162964,"120":-0.19580091536045074,"121":1.6885100603103638,"122":1.9499818086624146,"123":-1.5044794082641602,"124":0.2294815480709076,"125":-0.30851903557777405,"126":2.5006203651428223,"127":1.1584386825561523,"128":0.6557763814926147,"129":-1.2058188915252686,"130":1.9865810871124268,"131":-1.1993001699447632,"132":-1.5207736492156982,"133":-0.3349216878414154,"134":-0.5804618000984192,"135":-0.1500600129365921,"136":-0.7555892467498779,"137":0.12622682750225067,"138":1.0805811882019043,"139":-0.3976353704929352,"140":-0.6360806226730347,"141":0.789411723613739,"142":1.5462391376495361,"143":0.8812901377677917,"144":-0.25483980774879456,"145":-1.8860853910446167,"146":-1.7248458862304688,"147":0.23644809424877167,"148":1.1997886896133423,"149":-0.3840416371822357,"150":-4.299340724945068,"151":1.158790946006775,"152":0.9406684041023254,"153":1.177064061164856,"154":0.1624607890844345,"155":1.5858479738235474,"156":0.6499853134155273,"157":-0.08133773505687714,"158":1.042191505432129,"159":-2.394503355026245,"160":0.5088589787483215,"161":-3.0186262130737305,"162":2.788831949234009,"163":-0.3263934254646301,"164":0.5733833909034729,"165":-2.3788726329803467,"166":-0.9398220777511597,"167":-1.0708699226379395,"168":-0.44836387038230896,"169":0.768510639667511,"170":-0.7485374212265015,"171":3.420644998550415,"172":-2.01593279838562,"173":-1.3393876552581787,"174":-1.6808186769485474,"175":0.10211305320262909,"176":-1.0054941177368164,"177":-0.325483500957489,"178":-0.7289478778839111,"179":0.21578249335289001,"180":-0.2976769208908081,"181":1.0208994150161743,"182":2.0680606365203857,"183":1.0063292980194092,"184":2.1876180171966553,"185":-1.26129150390625,"186":-1.1353397369384766,"187":-0.5522177815437317,"188":1.3346712589263916,"189":-1.7228529453277588,"190":0.21542517840862274,"191":-0.6669343709945679,"192":-2.532626152038574,"193":-2.013601064682007,"194":0.5466805100440979,"195":-0.014722559601068497,"196":0.7704603672027588,"197":-3.2328402996063232,"198":-0.31500115990638733,"199":-2.773714542388916,"200":-3.507510185241699,"201":0.28260916471481323,"202":4.181294918060303,"203":-1.6278862953186035,"204":0.04272279143333435,"205":2.557276725769043,"206":-0.6950441002845764,"207":-1.8877846002578735,"208":-1.151045322418213,"209":-0.39447978138923645,"210":2.273441791534424,"211":-0.9674960374832153,"212":0.7562510967254639,"213":0.8896010518074036,"214":1.2311350107192993,"215":2.090486526489258,"216":-0.9941959381103516,"217":-0.9128842353820801,"218":-4.527626991271973,"219":-0.49943235516548157,"220":0.7866597175598145,"221":2.0190422534942627,"222":-0.6038325428962708,"223":-1.9356646537780762,"224":-0.6212561726570129,"225":0.20821350812911987,"226":-0.3349744975566864,"227":-0.26120513677597046,"228":2.2384214401245117,"229":1.8756810426712036,"230":-3.143261194229126,"231":0.6182721257209778,"232":-0.7194665670394897,"233":1.3207085132598877,"234":1.823212742805481,"235":-0.3157176971435547,"236":2.057645797729492,"237":-2.0687263011932373,"238":-0.958183765411377,"239":0.12811625003814697,"240":0.5442152619361877,"241":-0.3351922035217285,"242":-0.6236591935157776,"243":-0.17405298352241516,"244":1.5620406866073608,"245":-3.57419753074646,"246":-2.2039268016815186,"247":0.1545891910791397,"248":2.2261598110198975,"249":-0.3334619402885437,"250":1.1569616794586182,"251":-7.458559036254883,"252":-2.253373861312866,"253":1.3051083087921143,"254":-0.837135374546051,"255":-0.8042923808097839,"256":-0.5773616433143616,"257":-1.5334892272949219,"258":-3.101964235305786,"259":-1.8429763317108154}},"outputHidden":{"rows":20,"columns":20,"weights":{"0":1.8636456727981567,"1":-1.5634492635726929,"2":1.6763896942138672,"3":-2.708679437637329,"4":1.739384412765503,"5":0.9434064030647278,"6":3.4121196269989014,"7":-2.580552101135254,"8":-3.084888458251953,"9":1.33454167842865,"10":0.8635705709457397,"11":1.284531831741333,"12":-0.5395184755325317,"13":-0.45750778913497925,"14":1.0882279872894287,"15":-0.07016438245773315,"16":-1.7725549936294556,"17":2.0200765132904053,"18":0.2660396993160248,"19":3.2533068656921387,"20":-2.2857208251953125,"21":-2.850464105606079,"22":2.4904139041900635,"23":1.0995433330535889,"24":-1.0219714641571045,"25":-2.1154956817626953,"26":0.30875152349472046,"27":2.404118299484253,"28":-0.9856948852539062,"29":0.3629811108112335,"30":0.9530214667320251,"31":0.27504825592041016,"32":-0.016743863001465797,"33":-2.7365424633026123,"34":-0.38792508840560913,"35":-0.3654434382915497,"36":1.420100450515747,"37":-0.9262292385101318,"38":-0.487392395734787,"39":-1.6366521120071411,"40":1.8030688762664795,"41":2.638436794281006,"42":-7.395072937011719,"43":0.86480712890625,"44":-0.5149060487747192,"45":4.839896202087402,"46":-6.396451473236084,"47":1.7460713386535645,"48":0.8185041546821594,"49":2.756592035293579,"50":-4.6701860427856445,"51":-3.431875705718994,"52":5.042749881744385,"53":-0.6292797327041626,"54":-2.0927813053131104,"55":-2.2567131519317627,"56":-0.6421738862991333,"57":0.9429852962493896,"58":-0.5988067984580994,"59":2.0089974403381348,"60":2.7991514205932617,"61":1.3469011783599854,"62":-4.08247184753418,"63":1.4437575340270996,"64":-1.1721577644348145,"65":1.1793371438980103,"66":2.1949374675750732,"67":-3.598665237426758,"68":-1.8089877367019653,"69":-2.3068864345550537,"70":-3.0617802143096924,"71":1.4297599792480469,"72":1.7833311557769775,"73":-1.7124452590942383,"74":-3.5148684978485107,"75":-1.4893203973770142,"76":2.8654537200927734,"77":-0.8976820707321167,"78":0.7486192584037781,"79":-2.6750106811523438,"80":-0.8085581064224243,"81":2.3682405948638916,"82":-5.751925468444824,"83":1.8923547267913818,"84":-2.934338331222534,"85":2.3588674068450928,"86":5.989628791809082,"87":-3.0952212810516357,"88":-2.228638172149658,"89":0.12016205489635468,"90":-1.8902881145477295,"91":0.7124672532081604,"92":-5.1206769943237305,"93":-1.1302584409713745,"94":-1.3933571577072144,"95":0.9154617786407471,"96":0.6108890175819397,"97":1.4285143613815308,"98":0.1346740573644638,"99":-2.3397574424743652,"100":-0.9846436977386475,"101":-2.4053375720977783,"102":-2.160811424255371,"103":4.789097785949707,"104":-1.126877784729004,"105":-5.725205421447754,"106":4.756674289703369,"107":0.8243928551673889,"108":0.2703285217285156,"109":-0.21580901741981506,"110":3.0163028240203857,"111":-4.5007429122924805,"112":-2.1671433448791504,"113":1.474915862083435,"114":2.1874775886535645,"115":2.0463738441467285,"116":-4.618361473083496,"117":-2.717015504837036,"118":2.2496566772460938,"119":-2.1785025596618652,"120":-1.0240362882614136,"121":1.7062318325042725,"122":-1.3328677415847778,"123":1.600095510482788,"124":-1.000740647315979,"125":1.259832501411438,"126":-1.0919342041015625,"127":1.5942059755325317,"128":-1.8590787649154663,"129":0.5624433755874634,"130":-0.42218926548957825,"131":3.3498942852020264,"132":0.6652463674545288,"133":-1.254973292350769,"134":-0.9581424593925476,"135":3.6041040420532227,"136":2.1256892681121826,"137":0.720339298248291,"138":-1.3537919521331787,"139":-1.353155255317688,"140":2.5149126052856445,"141":-1.413765549659729,"142":0.6659112572669983,"143":-1.8409072160720825,"144":-1.2106086015701294,"145":-2.0356802940368652,"146":-2.237473726272583,"147":3.3978230953216553,"148":-0.7488725185394287,"149":0.0024442824069410563,"150":-0.5524857044219971,"151":-0.9760846495628357,"152":-0.9591525197029114,"153":-3.450533628463745,"154":5.308414459228516,"155":-3.628620147705078,"156":-0.7866259217262268,"157":-2.1287026405334473,"158":1.4319102764129639,"159":1.0678882598876953,"160":4.8920087814331055,"161":-1.2554365396499634,"162":-0.46890947222709656,"163":3.2411789894104004,"164":-0.07126157730817795,"165":-3.2934978008270264,"166":0.7339258193969727,"167":-1.6490533351898193,"168":-4.025217056274414,"169":-0.06108442321419716,"170":1.651358962059021,"171":-0.7351855039596558,"172":-4.850121974945068,"173":-0.7971199154853821,"174":3.0725996494293213,"175":-0.8550456166267395,"176":-1.07478928565979,"177":-4.92523193359375,"178":4.359945774078369,"179":-0.6812570095062256,"180":-3.043985366821289,"181":1.0522021055221558,"182":0.10722409188747406,"183":0.5261161923408508,"184":-3.3323020935058594,"185":0.19755877554416656,"186":0.43135446310043335,"187":-3.704775333404541,"188":1.0251961946487427,"189":2.9707250595092773,"190":0.24703167378902435,"191":0.038032788783311844,"192":0.4317993223667145,"193":-1.8666136264801025,"194":-0.3692704439163208,"195":0.9758949875831604,"196":1.709149718284607,"197":2.648442506790161,"198":-0.23753955960273743,"199":1.0477672815322876,"200":-3.291199207305908,"201":-1.5161097049713135,"202":3.655668258666992,"203":2.0793063640594482,"204":5.239879608154297,"205":0.7982373237609863,"206":2.5374083518981934,"207":2.154109001159668,"208":1.9417500495910645,"209":-2.5596206188201904,"210":5.632045269012451,"211":2.3123316764831543,"212":2.9289286136627197,"213":5.393604278564453,"214":0.23006561398506165,"215":-1.6746389865875244,"216":2.4818854331970215,"217":5.645290851593018,"218":-1.180883526802063,"219":1.6221081018447876,"220":-0.25127604603767395,"221":-4.175662040710449,"222":2.2325260639190674,"223":-3.0218796730041504,"224":0.28055015206336975,"225":2.424041271209717,"226":4.5646209716796875,"227":-2.405346155166626,"228":-0.8299579620361328,"229":-0.6537421345710754,"230":-0.5139001607894897,"231":-4.367608547210693,"232":0.8317545056343079,"233":1.125410795211792,"234":2.365490436553955,"235":-1.5418474674224854,"236":-1.2504748106002808,"237":0.5937408208847046,"238":-2.1265928745269775,"239":-0.2346818596124649,"240":-3.7989728450775146,"241":1.3078041076660156,"242":2.1381301879882812,"243":-2.1664304733276367,"244":3.8049023151397705,"245":1.2671748399734497,"246":2.363976240158081,"247":2.9009146690368652,"248":-1.9878299236297607,"249":1.5879448652267456,"250":0.999116837978363,"251":2.658602237701416,"252":1.7708680629730225,"253":-0.2696104943752289,"254":2.9718048572540283,"255":1.0239262580871582,"256":-5.038053035736084,"257":1.5310745239257812,"258":0.804510772228241,"259":1.1290903091430664,"260":-1.2495633363723755,"261":-5.145754814147949,"262":5.686211585998535,"263":0.38569533824920654,"264":2.961860418319702,"265":2.52429461479187,"266":2.330077648162842,"267":-2.656245708465576,"268":3.5980141162872314,"269":-2.74558424949646,"270":3.3771440982818604,"271":0.6434860825538635,"272":0.2613317668437958,"273":7.098340034484863,"274":-0.6569666862487793,"275":-1.7709776163101196,"276":-0.8203141689300537,"277":0.928621768951416,"278":-1.4489308595657349,"279":1.8294806480407715,"280":0.1443600356578827,"281":-0.32710781693458557,"282":0.6119794249534607,"283":0.33459022641181946,"284":-0.7814885377883911,"285":-0.6022961735725403,"286":0.04880368709564209,"287":2.3836476802825928,"288":-0.8001973032951355,"289":0.10018990933895111,"290":-0.300508975982666,"291":-1.1494524478912354,"292":0.01681981422007084,"293":-0.692968487739563,"294":1.1273200511932373,"295":-1.1944308280944824,"296":0.34522944688796997,"297":-0.7592229843139648,"298":0.3453916311264038,"299":0.23574967682361603,"300":-2.9921422004699707,"301":-3.321713924407959,"302":0.9671161770820618,"303":2.094376802444458,"304":-1.0660431385040283,"305":-0.3940332531929016,"306":1.9442378282546997,"307":1.434852123260498,"308":1.55963933467865,"309":-2.811458110809326,"310":3.7203526496887207,"311":-0.21630068123340607,"312":-0.44815635681152344,"313":2.3501510620117188,"314":2.2278568744659424,"315":-0.06725596636533737,"316":-2.0200963020324707,"317":-0.2557164430618286,"318":-1.2798478603363037,"319":-2.8869802951812744,"320":-2.4419562816619873,"321":-2.012542963027954,"322":-0.5446843504905701,"323":3.350477933883667,"324":-0.34436550736427307,"325":0.9438844323158264,"326":-0.5732787251472473,"327":-1.6180109977722168,"328":2.1746840476989746,"329":1.4534974098205566,"330":-1.6187390089035034,"331":-0.9890760779380798,"332":6.368407726287842,"333":4.610929489135742,"334":-3.0610666275024414,"335":0.85029536485672,"336":1.2825442552566528,"337":3.6524431705474854,"338":0.014407731592655182,"339":-0.3494107723236084,"340":-0.599349856376648,"341":-1.4906795024871826,"342":0.8132489919662476,"343":0.07131115347146988,"344":0.8604430556297302,"345":-2.0028672218322754,"346":-1.1007086038589478,"347":-3.4114139080047607,"348":0.9065364003181458,"349":-1.9508308172225952,"350":1.0513733625411987,"351":-3.2029638290405273,"352":-0.7777368426322937,"353":0.1502239853143692,"354":-0.2745332419872284,"355":-2.221766233444214,"356":-2.842064142227173,"357":0.6511254906654358,"358":-1.1260919570922852,"359":2.4893345832824707,"360":-6.064880847930908,"361":0.5880231261253357,"362":-1.7865571975708008,"363":-2.287018060684204,"364":-1.4571870565414429,"365":0.09342369437217712,"366":1.1338881254196167,"367":3.067164659500122,"368":-1.0239739418029785,"369":2.0951809883117676,"370":1.4398798942565918,"371":-3.500335216522217,"372":-0.7708262205123901,"373":-3.187124490737915,"374":0.8666403293609619,"375":4.340768814086914,"376":-4.171822547912598,"377":1.7270947694778442,"378":-2.972194194793701,"379":-6.1770758628845215,"380":-0.29518353939056396,"381":-2.113682270050049,"382":-0.8342241048812866,"383":-2.308232545852661,"384":-4.341261386871338,"385":1.3994930982589722,"386":3.4782400131225586,"387":7.089061260223389,"388":0.9834981560707092,"389":0.40515726804733276,"390":4.14854097366333,"391":1.2692594528198242,"392":-0.007965332828462124,"393":0.08024492114782333,"394":-1.422760248184204,"395":1.5567394495010376,"396":1.609036922454834,"397":-4.51863956451416,"398":1.580221176147461,"399":-0.9251623749732971}},"outputBias":{"rows":20,"columns":1,"weights":{"0":-0.28299036622047424,"1":-0.8069408535957336,"2":-1.2388083934783936,"3":-0.6568968296051025,"4":-2.7026448249816895,"5":-2.5331168174743652,"6":0.4946546256542206,"7":0.562531054019928,"8":-1.0639513731002808,"9":-0.358679860830307,"10":1.5614525079727173,"11":-2.437675952911377,"12":-2.686131715774536,"13":-0.38098591566085815,"14":-0.772051990032196,"15":-0.9021099209785461,"16":-1.9734832048416138,"17":-0.1396937519311905,"18":-0.9285081624984741,"19":-0.7416090965270996}},"cellActivationMatrix":{"rows":20,"columns":13,"weights":{"0":0.23831196129322052,"1":0.36939743161201477,"2":0.9761238694190979,"3":2.957095146179199,"4":-0.49593159556388855,"5":-1.1788727045059204,"6":-0.14759761095046997,"7":1.652855634689331,"8":-0.061919622123241425,"9":-1.5138270854949951,"10":0.24482712149620056,"11":1.269092082977295,"12":-1.7919282913208008,"13":-2.3811728954315186,"14":0.5291739702224731,"15":-1.76096510887146,"16":-0.005139101296663284,"17":-0.4598943293094635,"18":0.43756985664367676,"19":-0.38373997807502747,"20":-0.8804946541786194,"21":-1.6453441381454468,"22":-0.61247718334198,"23":0.4802929162979126,"24":0.8075646758079529,"25":-3.3236067295074463,"26":1.6326931715011597,"27":-0.5391907095909119,"28":0.7256850004196167,"29":-1.4819061756134033,"30":-1.0423688888549805,"31":0.27100974321365356,"32":0.2639809846878052,"33":1.4277366399765015,"34":1.6074802875518799,"35":0.29156574606895447,"36":-0.42902567982673645,"37":0.8933190107345581,"38":3.0957188606262207,"39":-0.8647506237030029,"40":1.9073717594146729,"41":1.0525588989257812,"42":1.213426947593689,"43":0.9939006567001343,"44":-1.3091692924499512,"45":1.8538379669189453,"46":0.771952748298645,"47":-1.703423261642456,"48":2.5618536472320557,"49":-1.028417944908142,"50":1.1797266006469727,"51":-0.46893495321273804,"52":-0.9515418410301208,"53":-0.9906484484672546,"54":-0.4976448118686676,"55":1.0433375835418701,"56":0.7939767241477966,"57":-0.04431518167257309,"58":-0.7850357890129089,"59":-1.589861512184143,"60":-1.2171416282653809,"61":0.9494062662124634,"62":1.5397475957870483,"63":1.1210817098617554,"64":-0.9972543120384216,"65":1.2094897031784058,"66":1.506203532218933,"67":-0.11038869619369507,"68":-1.5376981496810913,"69":-3.6254847049713135,"70":0.620722770690918,"71":1.3898847103118896,"72":-0.34494462609291077,"73":0.33179694414138794,"74":-1.5045450925827026,"75":-1.8169702291488647,"76":-0.8456540703773499,"77":-0.11424507945775986,"78":0.33130672574043274,"79":1.8645846843719482,"80":3.4001424312591553,"81":0.7455713152885437,"82":-2.363908529281616,"83":-1.1483886241912842,"84":1.9717484712600708,"85":-0.2251514047384262,"86":-0.7728492617607117,"87":-1.5152307748794556,"88":-0.7521082162857056,"89":-1.7472587823867798,"90":0.7264005541801453,"91":2.845201253890991,"92":0.24640873074531555,"93":0.4828340411186218,"94":1.9833918809890747,"95":0.8709623217582703,"96":0.09388307482004166,"97":-0.7489159107208252,"98":-0.46765559911727905,"99":0.04546481743454933,"100":-0.32345572113990784,"101":-0.3573484718799591,"102":2.3562002182006836,"103":2.6840248107910156,"104":-1.4520219564437866,"105":2.7996935844421387,"106":1.1632931232452393,"107":0.23591169714927673,"108":0.3026452958583832,"109":0.5170369744300842,"110":0.44396597146987915,"111":-1.810287356376648,"112":-0.8748554587364197,"113":1.0284613370895386,"114":-0.6169212460517883,"115":-0.7270432114601135,"116":-1.021953821182251,"117":2.972717046737671,"118":-0.7314566373825073,"119":0.7558765411376953,"120":0.04852748289704323,"121":-2.2612056732177734,"122":-1.1322898864746094,"123":0.27882105112075806,"124":1.9802273511886597,"125":0.040642548352479935,"126":-2.1321072578430176,"127":-0.2225918024778366,"128":-1.2929389476776123,"129":1.2246544361114502,"130":2.233351230621338,"131":1.5456119775772095,"132":2.1900994777679443,"133":0.33840110898017883,"134":-2.601661205291748,"135":-0.3511488735675812,"136":0.9199392795562744,"137":0.5266907215118408,"138":1.366207480430603,"139":-0.06692025810480118,"140":-1.8706661462783813,"141":0.0004918158520013094,"142":1.0926588773727417,"143":1.255696415901184,"144":-1.8105483055114746,"145":0.5020031332969666,"146":-0.9319068789482117,"147":2.014711856842041,"148":0.956990122795105,"149":0.8871340751647949,"150":-0.033490609377622604,"151":-0.9781951308250427,"152":1.2803194522857666,"153":0.31839385628700256,"154":-0.8130574226379395,"155":2.549828290939331,"156":2.444223642349243,"157":-1.3797630071640015,"158":0.5200734734535217,"159":-1.0047491788864136,"160":0.9548904299736023,"161":1.4691708087921143,"162":-1.3312889337539673,"163":-2.3877768516540527,"164":1.053889274597168,"165":-0.9835633635520935,"166":0.40739843249320984,"167":0.8487234115600586,"168":1.0800279378890991,"169":-0.043315742164850235,"170":1.5947962999343872,"171":2.4207167625427246,"172":-0.11603599041700363,"173":1.2671881914138794,"174":-0.9809558987617493,"175":2.5501489639282227,"176":-1.4907310009002686,"177":-0.9200132489204407,"178":0.43931248784065247,"179":-2.0122056007385254,"180":-0.5068536400794983,"181":-0.3524625897407532,"182":-0.614297091960907,"183":-0.3165251910686493,"184":-0.5888738036155701,"185":3.0165786743164062,"186":-1.102083683013916,"187":-0.534068763256073,"188":-1.2631213665008545,"189":2.061462163925171,"190":0.13070844113826752,"191":1.7999591827392578,"192":1.1025358438491821,"193":0.3477513790130615,"194":0.787540078163147,"195":2.0642919540405273,"196":1.0348198413848877,"197":-0.4388487935066223,"198":-0.12002504616975784,"199":-1.4385087490081787,"200":-0.7783514857292175,"201":1.7323205471038818,"202":0.20077548921108246,"203":0.5737403035163879,"204":-2.251282215118408,"205":-0.8485674262046814,"206":-1.2025349140167236,"207":0.1976136714220047,"208":0.4714171588420868,"209":-0.4978584945201874,"210":-2.595236301422119,"211":-0.03494550287723541,"212":1.4524915218353271,"213":-0.8369484543800354,"214":-0.9138924479484558,"215":0.3697234094142914,"216":-0.9740221500396729,"217":-0.6434346437454224,"218":1.298661708831787,"219":1.8390618562698364,"220":-1.3785842657089233,"221":-0.8630933165550232,"222":0.44419029355049133,"223":-0.6453379988670349,"224":0.33709028363227844,"225":-2.000215768814087,"226":-1.5859651565551758,"227":-1.7723164558410645,"228":0.6828221678733826,"229":-0.5207328200340271,"230":-2.5102274417877197,"231":-2.0253713130950928,"232":-0.19572310149669647,"233":0.38314196467399597,"234":-0.6884021759033203,"235":2.570319175720215,"236":1.2717710733413696,"237":0.9729330539703369,"238":-2.3443031311035156,"239":-1.6991699934005737,"240":1.3423991203308105,"241":0.3632998466491699,"242":-0.34329062700271606,"243":-1.3146100044250488,"244":-0.12706732749938965,"245":-0.8563086986541748,"246":-0.1632276177406311,"247":0.7373257875442505,"248":-0.47527599334716797,"249":1.6631557941436768,"250":-1.9137147665023804,"251":-0.22828657925128937,"252":-1.315332055091858,"253":0.13991890847682953,"254":2.7826712131500244,"255":1.9327809810638428,"256":-0.07793156057596207,"257":-0.42465314269065857,"258":-0.6865026354789734,"259":3.249892234802246}},"cellActivationHidden":{"rows":20,"columns":20,"weights":{"0":-0.4108397364616394,"1":-1.4664965867996216,"2":3.2609078884124756,"3":-1.257190465927124,"4":-0.3307144343852997,"5":2.0907535552978516,"6":0.965002715587616,"7":-1.0098514556884766,"8":1.2386293411254883,"9":1.4586594104766846,"10":2.425218343734741,"11":1.2942816019058228,"12":0.46365928649902344,"13":0.5495728254318237,"14":1.079801321029663,"15":0.1629852056503296,"16":-2.422640323638916,"17":0.6757802367210388,"18":2.5787906646728516,"19":0.18973176181316376,"20":2.1584177017211914,"21":0.24526073038578033,"22":-0.2393122911453247,"23":0.3824318051338196,"24":0.02459595911204815,"25":-0.6031085848808289,"26":-1.3205002546310425,"27":-0.3443543314933777,"28":1.4317923784255981,"29":-1.3928488492965698,"30":0.44842830300331116,"31":0.40958741307258606,"32":-0.9913676381111145,"33":0.40522849559783936,"34":1.2357443571090698,"35":-2.1565237045288086,"36":-1.056638240814209,"37":1.4741460084915161,"38":0.4812200665473938,"39":1.1709293127059937,"40":1.845588207244873,"41":0.09627194702625275,"42":-0.026531996205449104,"43":3.816943645477295,"44":0.2525295913219452,"45":0.7092863321304321,"46":-0.747023344039917,"47":-0.1330339014530182,"48":-0.00829362403601408,"49":0.08564970642328262,"50":-1.6949725151062012,"51":1.2128405570983887,"52":0.5790581703186035,"53":0.6372869610786438,"54":-0.23225519061088562,"55":-0.7091630101203918,"56":-2.381887197494507,"57":1.8968074321746826,"58":1.0959162712097168,"59":0.7572405338287354,"60":-1.3174772262573242,"61":-0.149158775806427,"62":-0.04146876186132431,"63":-1.1052906513214111,"64":0.4050220251083374,"65":-0.6382172703742981,"66":-0.34383735060691833,"67":0.23484916985034943,"68":0.500811755657196,"69":-1.8756628036499023,"70":-1.0675795078277588,"71":0.18771328032016754,"72":-0.21807542443275452,"73":0.8319401741027832,"74":-0.5720095634460449,"75":1.4037144184112549,"76":-0.4651598632335663,"77":-1.7851194143295288,"78":0.014151640236377716,"79":-1.016639232635498,"80":-0.38837099075317383,"81":-1.2276666164398193,"82":-0.06275366246700287,"83":-0.05020437762141228,"84":0.9080765843391418,"85":0.4992275536060333,"86":0.999947190284729,"87":-1.232259750366211,"88":-0.6404334306716919,"89":-0.3238683342933655,"90":0.5190010666847229,"91":0.37098246812820435,"92":0.00013736977416556329,"93":0.9174593687057495,"94":1.006074070930481,"95":-0.019591186195611954,"96":-1.4014897346496582,"97":0.4008438289165497,"98":1.7377283573150635,"99":0.5392334461212158,"100":2.7534139156341553,"101":1.1322788000106812,"102":-0.45463356375694275,"103":0.5304443836212158,"104":0.5907233953475952,"105":0.4819006025791168,"106":0.3638458549976349,"107":0.7216706275939941,"108":-0.8326586484909058,"109":1.3395379781723022,"110":-0.20711955428123474,"111":-0.5756548047065735,"112":0.1734021008014679,"113":-0.25703564286231995,"114":-0.39264151453971863,"115":0.8382020592689514,"116":-0.32734400033950806,"117":0.31389105319976807,"118":0.8697720170021057,"119":-1.259761095046997,"120":-0.17937716841697693,"121":0.7863907217979431,"122":-0.23172780871391296,"123":0.7007048726081848,"124":-0.4157600700855255,"125":-1.0778367519378662,"126":1.6651098728179932,"127":1.4467113018035889,"128":0.5744771957397461,"129":-0.05938821658492088,"130":-0.354017049074173,"131":0.5321040749549866,"132":-0.08925534039735794,"133":-0.2807551622390747,"134":-0.18666812777519226,"135":-1.7238051891326904,"136":0.18017160892486572,"137":-0.36120960116386414,"138":0.49809134006500244,"139":-0.6621177792549133,"140":1.7024238109588623,"141":0.40069493651390076,"142":-0.9411417245864868,"143":1.1333069801330566,"144":0.9487282633781433,"145":-2.7294061183929443,"146":-1.1708452701568604,"147":-0.21498095989227295,"148":-0.5935762524604797,"149":0.6165197491645813,"150":-1.1327677965164185,"151":0.5124850869178772,"152":-0.3664402365684509,"153":0.4688270390033722,"154":-1.4315612316131592,"155":0.4064887464046478,"156":2.430441379547119,"157":-0.2610225975513458,"158":-0.007101265713572502,"159":-1.103891372680664,"160":-0.02126259356737137,"161":-1.1136257648468018,"162":1.074940800666809,"163":0.9942851066589355,"164":-1.8680458068847656,"165":0.3254595100879669,"166":1.1333938837051392,"167":1.1310789585113525,"168":1.960138201713562,"169":0.9760121703147888,"170":1.576366662979126,"171":-1.1707446575164795,"172":1.4531571865081787,"173":0.8213120698928833,"174":-2.0386054515838623,"175":1.7307099103927612,"176":0.8589735627174377,"177":3.3911633491516113,"178":-0.3470374643802643,"179":-0.7369484901428223,"180":-0.022354532033205032,"181":0.2544826567173004,"182":-0.14823226630687714,"183":-1.6610920429229736,"184":-1.618316650390625,"185":0.23843629658222198,"186":-1.2065316438674927,"187":-1.9763965606689453,"188":-0.6954615116119385,"189":1.5059454441070557,"190":-1.1487122774124146,"191":2.0106406211853027,"192":-0.49583134055137634,"193":-0.18888239562511444,"194":-0.21801204979419708,"195":0.8470085859298706,"196":1.4008885622024536,"197":-0.9361426830291748,"198":-1.580470085144043,"199":-1.231629729270935,"200":0.3680533170700073,"201":0.1626025289297104,"202":1.0032494068145752,"203":1.182841181755066,"204":-0.48813679814338684,"205":-0.46451616287231445,"206":0.3907012343406677,"207":0.7906600832939148,"208":0.5462192893028259,"209":-0.8005782961845398,"210":-0.49266019463539124,"211":0.09858372062444687,"212":-0.31658437848091125,"213":-0.4678168296813965,"214":-0.47885578870773315,"215":1.5327078104019165,"216":0.7625862956047058,"217":-1.0720897912979126,"218":1.3848826885223389,"219":-1.9456143379211426,"220":-0.4376939833164215,"221":-2.4678115844726562,"222":2.646214008331299,"223":-0.7183763384819031,"224":1.2415735721588135,"225":-0.3615588843822479,"226":1.0324671268463135,"227":0.24957694113254547,"228":-1.2986401319503784,"229":-1.3943912982940674,"230":1.7903162240982056,"231":-2.6742429733276367,"232":0.11495502293109894,"233":2.591081142425537,"234":0.6827408671379089,"235":-1.4913508892059326,"236":-2.1716156005859375,"237":-0.1104699894785881,"238":-1.9769067764282227,"239":2.0059266090393066,"240":0.38451841473579407,"241":0.5851864218711853,"242":-1.289021611213684,"243":0.8608285188674927,"244":1.2626291513442993,"245":-0.4643676280975342,"246":0.3240633010864258,"247":-1.473001480102539,"248":-0.7523060441017151,"249":-0.37307408452033997,"250":-0.8266932964324951,"251":0.5029637813568115,"252":0.22544419765472412,"253":-0.4063103199005127,"254":-1.3428319692611694,"255":1.6559420824050903,"256":0.38296034932136536,"257":-0.9097018837928772,"258":-0.6179451942443848,"259":-2.321441650390625,"260":-0.18614190816879272,"261":-0.28779327869415283,"262":1.4462405443191528,"263":2.311906337738037,"264":0.48089635372161865,"265":-0.7964311838150024,"266":-0.5476036071777344,"267":-0.7968193292617798,"268":-0.20724694430828094,"269":0.8622281551361084,"270":1.1654387712478638,"271":0.2502725124359131,"272":0.6228039264678955,"273":1.2489784955978394,"274":0.7840980887413025,"275":0.9110777378082275,"276":-0.5167281627655029,"277":0.5561031103134155,"278":1.718629240989685,"279":0.663546085357666,"280":0.7624896168708801,"281":0.42691656947135925,"282":-0.3949974775314331,"283":0.053760990500450134,"284":-1.49751877784729,"285":-0.5165020227432251,"286":-0.07937521487474442,"287":0.7541267275810242,"288":1.1090691089630127,"289":1.5240023136138916,"290":-0.05038498714566231,"291":-1.3652015924453735,"292":0.41817352175712585,"293":-2.6659793853759766,"294":0.1710682064294815,"295":0.3237437903881073,"296":-0.6863289475440979,"297":-0.7052904367446899,"298":1.2300591468811035,"299":-0.6054242849349976,"300":-0.055438145995140076,"301":0.43208345770835876,"302":-0.0032410791609436274,"303":-0.8195196390151978,"304":-1.335889220237732,"305":-0.8210228681564331,"306":1.1115906238555908,"307":1.4200305938720703,"308":-0.9017308354377747,"309":1.269090175628662,"310":-0.130530446767807,"311":-1.430013656616211,"312":-0.37490522861480713,"313":-2.0319418907165527,"314":-0.3288540840148926,"315":-0.6508837342262268,"316":0.9951615333557129,"317":0.3498907685279846,"318":0.3271861672401428,"319":0.5514712333679199,"320":-0.39739325642585754,"321":0.5435031652450562,"322":-0.9921128749847412,"323":-0.3091035485267639,"324":-0.4651908576488495,"325":0.9767058491706848,"326":-0.06958670914173126,"327":-0.6873860359191895,"328":-0.630688488483429,"329":-1.4167081117630005,"330":-0.6543083190917969,"331":-0.4969139099121094,"332":0.02371443621814251,"333":-0.29146671295166016,"334":-0.004665339831262827,"335":-0.07526421546936035,"336":-0.3425261378288269,"337":-0.373689204454422,"338":-1.9532283544540405,"339":-0.3302242159843445,"340":1.4711247682571411,"341":2.8070404529571533,"342":-1.6644798517227173,"343":1.2874886989593506,"344":0.8845404982566833,"345":-0.8416004776954651,"346":-0.9724796414375305,"347":0.6839604377746582,"348":-0.6568869948387146,"349":-0.5779544711112976,"350":-3.301485538482666,"351":2.0545761585235596,"352":0.7139126062393188,"353":-2.7838058471679688,"354":-1.1781617403030396,"355":-0.3598167896270752,"356":2.0275607109069824,"357":-0.4462101459503174,"358":-1.4840507507324219,"359":-1.7666125297546387,"360":0.29615896940231323,"361":0.09361337870359421,"362":-1.2208088636398315,"363":1.4805585145950317,"364":0.8981863260269165,"365":1.0136951208114624,"366":-1.1429097652435303,"367":1.7926677465438843,"368":-0.39829322695732117,"369":2.301358699798584,"370":-0.9246388673782349,"371":-0.13728907704353333,"372":0.3615957796573639,"373":1.995140552520752,"374":-1.6039561033248901,"375":2.770428419113159,"376":-0.4911457300186157,"377":0.8914217352867126,"378":-0.3833608031272888,"379":-2.5524213314056396,"380":-1.5853345394134521,"381":-0.67560213804245,"382":1.0232329368591309,"383":1.2283037900924683,"384":-1.910231113433838,"385":-0.9295649528503418,"386":0.5162582993507385,"387":1.6891899108886719,"388":2.907644510269165,"389":0.8626331686973572,"390":0.8485929369926453,"391":1.2691179513931274,"392":1.064489722251892,"393":0.6775205731391907,"394":0.029212888330221176,"395":-0.22103731334209442,"396":1.5615671873092651,"397":0.9500662088394165,"398":1.3525404930114746,"399":-2.4037516117095947}},"cellActivationBias":{"rows":20,"columns":1,"weights":{"0":-0.08316155523061752,"1":-0.36003848910331726,"2":0.38458260893821716,"3":1.2155048847198486,"4":-1.743289828300476,"5":-0.4822392761707306,"6":-0.21828649938106537,"7":1.2783759832382202,"8":-0.2902398407459259,"9":-1.5394525527954102,"10":0.18203061819076538,"11":0.6911528706550598,"12":-0.07678528875112534,"13":-0.228419691324234,"14":0.4946652054786682,"15":-0.3346427083015442,"16":0.2489655613899231,"17":0.13227900862693787,"18":0.4319632351398468,"19":0.3084188401699066}}},{"inputMatrix":{"rows":20,"columns":20,"weights":{"0":2.0606863498687744,"1":-1.0298186540603638,"2":2.618489980697632,"3":2.278794765472412,"4":0.4436890184879303,"5":3.009324073791504,"6":0.47888273000717163,"7":1.6450806856155396,"8":-0.11094152182340622,"9":-0.9934179782867432,"10":-0.18629339337348938,"11":-1.2563849687576294,"12":0.30410951375961304,"13":3.46640682220459,"14":3.80186128616333,"15":-2.365056037902832,"16":0.870547890663147,"17":1.3719373941421509,"18":6.008214473724365,"19":-1.0169427394866943,"20":-1.922154188156128,"21":-2.4835760593414307,"22":2.0633857250213623,"23":-5.043630123138428,"24":-0.3838126063346863,"25":-2.1660921573638916,"26":-0.7791203260421753,"27":-5.374041557312012,"28":-1.6479723453521729,"29":0.7196323275566101,"30":0.22359353303909302,"31":-0.42116543650627136,"32":-1.5909934043884277,"33":1.4671266078948975,"34":-1.4468845129013062,"35":0.9462723135948181,"36":3.728566884994507,"37":-2.16424560546875,"38":-3.4243521690368652,"39":1.7574533224105835,"40":0.7921724319458008,"41":3.179967164993286,"42":2.0339558124542236,"43":-0.019305111840367317,"44":2.167764663696289,"45":-2.800445795059204,"46":2.8329057693481445,"47":-4.151969909667969,"48":0.9608660936355591,"49":0.9551677703857422,"50":0.003384954296052456,"51":-1.0125982761383057,"52":-0.44847044348716736,"53":-2.3859703540802,"54":0.8656101822853088,"55":0.38872894644737244,"56":0.0435372069478035,"57":-2.3920552730560303,"58":0.7897917628288269,"59":1.210501790046692,"60":1.1530985832214355,"61":-0.2407684028148651,"62":1.870151162147522,"63":1.500885009765625,"64":-2.939166307449341,"65":3.3308866024017334,"66":0.4860838055610657,"67":5.1591901779174805,"68":-0.39004072546958923,"69":2.806971549987793,"70":2.5999505519866943,"71":1.3886398077011108,"72":-1.8569825887680054,"73":-1.699940800666809,"74":-1.3876694440841675,"75":0.07779166102409363,"76":-2.4227354526519775,"77":0.23859958350658417,"78":-0.9126207232475281,"79":1.5189284086227417,"80":-4.689392566680908,"81":-0.9627042412757874,"82":1.02782142162323,"83":-1.7708866596221924,"84":-2.352872371673584,"85":0.32869839668273926,"86":4.301669120788574,"87":-1.9864726066589355,"88":3.0275776386260986,"89":-0.7039526700973511,"90":1.8609542846679688,"91":-5.526065349578857,"92":1.1245076656341553,"93":2.162931203842163,"94":1.4180333614349365,"95":1.2444474697113037,"96":-3.3480663299560547,"97":-1.9892746210098267,"98":-3.2122786045074463,"99":0.22167234122753143,"100":-1.5332821607589722,"101":1.4701929092407227,"102":-0.11485186219215393,"103":-0.5575624108314514,"104":-4.28497314453125,"105":-0.9221134185791016,"106":-2.611220359802246,"107":-1.9813451766967773,"108":3.886399269104004,"109":-0.32749658823013306,"110":-0.948456346988678,"111":0.952265202999115,"112":-0.7054687738418579,"113":-0.683623194694519,"114":-0.8048911690711975,"115":-1.7657095193862915,"116":-0.9870476722717285,"117":-0.7835707664489746,"118":0.798342764377594,"119":3.323453903198242,"120":-0.0108046755194664,"121":-2.4331095218658447,"122":-0.772100031375885,"123":5.372816562652588,"124":3.744074583053589,"125":-3.4380781650543213,"126":3.0414624214172363,"127":1.67361319065094,"128":-0.3938373327255249,"129":2.556215524673462,"130":0.6535918712615967,"131":0.26262834668159485,"132":5.245190143585205,"133":2.423253297805786,"134":1.4591269493103027,"135":5.181225776672363,"136":-1.1606541872024536,"137":-0.2354680597782135,"138":-0.06723630428314209,"139":-1.7325835227966309,"140":0.6484688520431519,"141":-4.427419185638428,"142":2.1220614910125732,"143":4.859149932861328,"144":-0.011154044419527054,"145":2.158144950866699,"146":0.07446369528770447,"147":2.539918899536133,"148":-0.3765639066696167,"149":-7.389220714569092,"150":1.6104512214660645,"151":-2.5277788639068604,"152":-1.7581771612167358,"153":0.24440836906433105,"154":-0.05741838738322258,"155":-0.24683769047260284,"156":-5.3759355545043945,"157":0.9382469654083252,"158":0.28022751212120056,"159":1.5829105377197266,"160":-1.324957251548767,"161":-2.4914379119873047,"162":7.460908889770508,"163":0.9527364373207092,"164":10.604522705078125,"165":1.796085000038147,"166":-1.0569649934768677,"167":2.4868381023406982,"168":-3.8697993755340576,"169":-0.7981934547424316,"170":2.3156588077545166,"171":2.0840752124786377,"172":6.374260902404785,"173":3.9452290534973145,"174":2.923274278640747,"175":0.6049308180809021,"176":-1.6432732343673706,"177":1.9008816480636597,"178":1.570223331451416,"179":0.2693209648132324,"180":-2.3063247203826904,"181":-1.7430469989776611,"182":1.1849207878112793,"183":0.8186408281326294,"184":-2.7528510093688965,"185":-1.8424957990646362,"186":-3.7160866260528564,"187":-2.5958728790283203,"188":-0.8167629837989807,"189":0.8388581871986389,"190":0.06018846854567528,"191":-2.532200813293457,"192":0.5680204033851624,"193":-1.8227589130401611,"194":-1.8535830974578857,"195":-3.5725371837615967,"196":-2.1125147342681885,"197":0.5267503261566162,"198":-2.029970169067383,"199":0.44737038016319275,"200":4.113002300262451,"201":2.044909715652466,"202":-0.837052583694458,"203":0.8362809419631958,"204":1.0553988218307495,"205":1.6275073289871216,"206":-0.40592873096466064,"207":-2.879179000854492,"208":1.6214194297790527,"209":0.9577042460441589,"210":-2.4980483055114746,"211":2.213087558746338,"212":-0.29744085669517517,"213":-3.640613555908203,"214":-0.6045773029327393,"215":-1.2216758728027344,"216":0.1486922651529312,"217":-1.0471593141555786,"218":0.8586617112159729,"219":-3.047105073928833,"220":-0.7622162103652954,"221":1.5287610292434692,"222":-1.7598633766174316,"223":2.1359429359436035,"224":3.1289587020874023,"225":-1.0079014301300049,"226":-0.5473217964172363,"227":-4.586535453796387,"228":-1.3407280445098877,"229":-1.1132909059524536,"230":-0.5445253252983093,"231":1.452427864074707,"232":-1.8526384830474854,"233":-1.2026407718658447,"234":1.9527302980422974,"235":-4.633960723876953,"236":1.8933179378509521,"237":-2.009385824203491,"238":0.19158664345741272,"239":0.30320677161216736,"240":-3.3305442333221436,"241":0.5754165649414062,"242":1.2426599264144897,"243":-0.5449209809303284,"244":-0.8086043000221252,"245":-2.117180347442627,"246":-1.2002326250076294,"247":0.26580849289894104,"248":3.1139838695526123,"249":0.48410648107528687,"250":3.034092903137207,"251":1.46773099899292,"252":4.484922885894775,"253":2.935792922973633,"254":3.2148993015289307,"255":1.698093056678772,"256":-0.9213866591453552,"257":2.968770742416382,"258":-3.6183154582977295,"259":-2.205866575241089,"260":-1.0879591703414917,"261":2.8336215019226074,"262":0.8335515260696411,"263":-0.8091149926185608,"264":1.316516637802124,"265":0.35496872663497925,"266":-2.0667269229888916,"267":0.9425657391548157,"268":0.1355278342962265,"269":1.2338337898254395,"270":-0.6286903023719788,"271":-0.9471037983894348,"272":1.3163141012191772,"273":-0.7872351408004761,"274":-0.47664496302604675,"275":-0.7936631441116333,"276":-1.9884297847747803,"277":4.539878845214844,"278":-1.729201316833496,"279":-2.703939914703369,"280":-0.6960916519165039,"281":-5.726655960083008,"282":-2.8571717739105225,"283":5.970754146575928,"284":-1.9793825149536133,"285":1.7210028171539307,"286":2.6508383750915527,"287":2.333570718765259,"288":0.9841766357421875,"289":0.7192416787147522,"290":1.8008586168289185,"291":3.8650529384613037,"292":-4.512390613555908,"293":3.469853162765503,"294":-3.2689099311828613,"295":3.8926641941070557,"296":-4.913357257843018,"297":-2.336538553237915,"298":3.80680513381958,"299":-1.492846965789795,"300":-1.5945794582366943,"301":-1.0376120805740356,"302":-0.015105335973203182,"303":0.5303654670715332,"304":-4.260393142700195,"305":3.093637466430664,"306":-0.874718964099884,"307":-1.2953115701675415,"308":0.9974565505981445,"309":0.8567284345626831,"310":4.430185317993164,"311":-3.9095711708068848,"312":-0.39342138171195984,"313":0.6200830936431885,"314":-1.5850125551223755,"315":-0.6882559061050415,"316":-1.7524486780166626,"317":3.119722366333008,"318":2.203143835067749,"319":-1.3362361192703247,"320":-5.2240424156188965,"321":-1.2254751920700073,"322":1.7256007194519043,"323":0.3948594033718109,"324":0.0685238242149353,"325":-0.8627757430076599,"326":-0.4741569459438324,"327":0.35158559679985046,"328":2.266096591949463,"329":0.3715447783470154,"330":-0.21889998018741608,"331":2.1738100051879883,"332":-0.8036301732063293,"333":-2.0099740028381348,"334":-2.729973077774048,"335":-1.3264145851135254,"336":-0.3427111804485321,"337":0.24233050644397736,"338":-2.3479971885681152,"339":2.8536877632141113,"340":-0.5868670344352722,"341":-3.4991886615753174,"342":3.551574945449829,"343":-1.0239002704620361,"344":0.09228803217411041,"345":0.492019385099411,"346":-2.677318811416626,"347":6.310445308685303,"348":-3.1113805770874023,"349":-0.7474770545959473,"350":3.4932644367218018,"351":-0.5753211379051208,"352":3.574559450149536,"353":-1.0464842319488525,"354":0.3276619613170624,"355":0.27394551038742065,"356":-2.953742742538452,"357":2.890080213546753,"358":-1.6857560873031616,"359":4.503411769866943,"360":-4.135087013244629,"361":-3.2643065452575684,"362":2.4752511978149414,"363":1.6452045440673828,"364":4.417632579803467,"365":-0.3938339948654175,"366":1.8474607467651367,"367":3.976217031478882,"368":-3.5642189979553223,"369":-2.038205146789551,"370":2.7393906116485596,"371":4.66510534286499,"372":4.503968715667725,"373":5.4753899574279785,"374":-2.182710647583008,"375":-2.0918521881103516,"376":-0.3028038740158081,"377":-2.076514720916748,"378":-4.096341133117676,"379":-1.7757084369659424,"380":-0.3958364725112915,"381":-2.3593640327453613,"382":4.2465291023254395,"383":-1.740764856338501,"384":8.031116485595703,"385":0.08036325126886368,"386":0.5855301022529602,"387":-0.8452372550964355,"388":-2.8190951347351074,"389":-0.7679239511489868,"390":4.216952800750732,"391":1.594252586364746,"392":2.9410195350646973,"393":2.5196173191070557,"394":0.6088690161705017,"395":1.8097355365753174,"396":-0.45522788166999817,"397":1.067118525505066,"398":-1.9453635215759277,"399":5.908830642700195}},"inputHidden":{"rows":20,"columns":20,"weights":{"0":3.9780020713806152,"1":-0.7503408789634705,"2":-0.4589207172393799,"3":2.5767767429351807,"4":4.792473793029785,"5":1.535341501235962,"6":3.219879627227783,"7":-4.575710296630859,"8":-1.5170855522155762,"9":-0.37664932012557983,"10":-4.17323637008667,"11":1.2793079614639282,"12":-1.497039556503296,"13":0.662201464176178,"14":10.872024536132812,"15":-3.7554118633270264,"16":-0.6522332429885864,"17":1.8247774839401245,"18":-5.931394100189209,"19":6.754673004150391,"20":4.658493518829346,"21":1.6922149658203125,"22":3.3019251823425293,"23":7.8968586921691895,"24":5.256964683532715,"25":3.542649984359741,"26":-1.010154128074646,"27":6.927101135253906,"28":-1.1204204559326172,"29":5.476443767547607,"30":2.184462547302246,"31":-5.42393159866333,"32":-1.3294744491577148,"33":-1.3237056732177734,"34":-4.562252044677734,"35":1.8895846605300903,"36":0.2726147174835205,"37":-0.6021928787231445,"38":-1.1747418642044067,"39":0.13530588150024414,"40":0.626494288444519,"41":-0.9576482772827148,"42":5.631882190704346,"43":-2.7936956882476807,"44":3.405315399169922,"45":-1.8988871574401855,"46":-1.690575122833252,"47":5.101509094238281,"48":-0.04794429987668991,"49":-1.4797171354293823,"50":-4.124342441558838,"51":3.4315378665924072,"52":-5.751397132873535,"53":1.9547463655471802,"54":-2.8938024044036865,"55":2.389796257019043,"56":-2.8515093326568604,"57":-2.206972360610962,"58":0.4148716628551483,"59":-2.1472485065460205,"60":-0.20881320536136627,"61":-2.778872013092041,"62":1.7724113464355469,"63":3.1401753425598145,"64":0.7492285966873169,"65":-3.5629498958587646,"66":-5.334505558013916,"67":1.0205790996551514,"68":2.5574440956115723,"69":-3.9278862476348877,"70":-9.11041259765625,"71":-2.9532742500305176,"72":0.9889894127845764,"73":-0.506706178188324,"74":-2.6096885204315186,"75":-9.104758262634277,"76":2.1043519973754883,"77":-1.5773085355758667,"78":3.487858772277832,"79":0.45877307653427124,"80":1.9746079444885254,"81":8.072779655456543,"82":1.4924920797348022,"83":-0.9392222166061401,"84":1.593367576599121,"85":-0.9816349148750305,"86":4.072244644165039,"87":-3.442714214324951,"88":1.8307676315307617,"89":-4.782981872558594,"90":0.14499041438102722,"91":4.730702877044678,"92":-1.133367657661438,"93":1.1714123487472534,"94":3.2489681243896484,"95":-1.009670615196228,"96":-6.484710693359375,"97":3.187469720840454,"98":0.6535494327545166,"99":-0.4203374981880188,"100":-1.226728916168213,"101":-4.550790309906006,"102":2.665193796157837,"103":-5.130291938781738,"104":-2.5451571941375732,"105":-3.250631809234619,"106":-2.0063178539276123,"107":1.5249898433685303,"108":5.334730625152588,"109":-4.666705131530762,"110":-2.368645668029785,"111":-3.643709659576416,"112":-2.8967318534851074,"113":0.9178657531738281,"114":0.9623991250991821,"115":-5.423433303833008,"116":-0.38383588194847107,"117":0.8024031519889832,"118":3.9550929069519043,"119":-0.4335991144180298,"120":0.4058947265148163,"121":-3.0743918418884277,"122":-5.396361351013184,"123":-3.5334160327911377,"124":1.5423870086669922,"125":-0.8872115612030029,"126":1.3853530883789062,"127":-4.04006290435791,"128":0.09526484459638596,"129":-2.2844064235687256,"130":-3.9358949661254883,"131":1.6989498138427734,"132":2.0042471885681152,"133":3.33445405960083,"134":2.120530605316162,"135":-7.273437023162842,"136":1.133679747581482,"137":-3.0269877910614014,"138":-1.7773669958114624,"139":-2.002829074859619,"140":2.9621996879577637,"141":2.933284044265747,"142":2.3635871410369873,"143":1.537136435508728,"144":-0.9468239545822144,"145":0.10183269530534744,"146":1.022165060043335,"147":0.7926046848297119,"148":1.6464433670043945,"149":3.459745407104492,"150":3.4039320945739746,"151":5.477177619934082,"152":-2.9303765296936035,"153":1.977006196975708,"154":-9.607292175292969,"155":1.3511443138122559,"156":-3.180331230163574,"157":-1.8847508430480957,"158":7.886335849761963,"159":2.1497199535369873,"160":5.554198741912842,"161":0.22155152261257172,"162":-2.532243013381958,"163":-3.0636987686157227,"164":-2.8880176544189453,"165":-2.7334585189819336,"166":-0.20895244181156158,"167":1.125218152999878,"168":-4.6333417892456055,"169":-4.36145544052124,"170":-3.190223217010498,"171":1.702927589416504,"172":-1.1898024082183838,"173":-4.470663070678711,"174":-3.380406618118286,"175":1.129443883895874,"176":-3.5442771911621094,"177":3.6582300662994385,"178":5.492750644683838,"179":-2.2506470680236816,"180":3.010857343673706,"181":0.349273145198822,"182":-1.8920937776565552,"183":-2.4901485443115234,"184":4.762115001678467,"185":2.5544049739837646,"186":-4.602807521820068,"187":4.5696234703063965,"188":-0.795465886592865,"189":-3.980618715286255,"190":4.130303382873535,"191":-7.6167192459106445,"192":-0.7780957818031311,"193":-2.1061201095581055,"194":-1.932374358177185,"195":1.2215023040771484,"196":-0.167008638381958,"197":-4.185708045959473,"198":-1.6085134744644165,"199":6.492373466491699,"200":3.405961036682129,"201":-2.3209850788116455,"202":-3.2011778354644775,"203":2.4821863174438477,"204":4.276078701019287,"205":1.0560885667800903,"206":2.960432291030884,"207":1.8924094438552856,"208":2.9222545623779297,"209":-0.019135255366563797,"210":-0.49832963943481445,"211":0.5483027696609497,"212":-4.298738956451416,"213":1.1546965837478638,"214":2.683925151824951,"215":-7.963061809539795,"216":2.156520128250122,"217":-6.350164413452148,"218":-3.7045705318450928,"219":0.46283024549484253,"220":6.186515808105469,"221":-0.8401986360549927,"222":-2.792405843734741,"223":3.678053855895996,"224":1.718601942062378,"225":0.799565851688385,"226":0.20037966966629028,"227":0.833441972732544,"228":-2.269345283508301,"229":-4.9932122230529785,"230":1.4420955181121826,"231":0.3338429033756256,"232":3.5297257900238037,"233":-0.9930261373519897,"234":-3.5955402851104736,"235":4.658255577087402,"236":1.3887892961502075,"237":-4.025561809539795,"238":1.3211733102798462,"239":-3.529073476791382,"240":4.721309185028076,"241":-6.546722412109375,"242":5.3782124519348145,"243":-1.5059071779251099,"244":5.6710710525512695,"245":-4.393675804138184,"246":2.746147632598877,"247":0.6528593897819519,"248":3.8128302097320557,"249":-0.4649175703525543,"250":-2.001939058303833,"251":-0.22153091430664062,"252":1.5768672227859497,"253":0.8447411060333252,"254":2.4201903343200684,"255":-8.642215728759766,"256":-1.6355482339859009,"257":-2.222912549972534,"258":4.774063587188721,"259":-1.993507981300354,"260":4.25699520111084,"261":1.5737817287445068,"262":-3.2446203231811523,"263":-1.2497957944869995,"264":0.7909824848175049,"265":-4.261163711547852,"266":4.329364776611328,"267":1.120162844657898,"268":-1.9426357746124268,"269":-1.6738709211349487,"270":-8.640295028686523,"271":-0.9395644664764404,"272":1.1543289422988892,"273":1.6164700984954834,"274":0.21399220824241638,"275":-3.47367787361145,"276":2.6584529876708984,"277":-3.6424975395202637,"278":1.326219916343689,"279":1.5323768854141235,"280":0.2607618272304535,"281":-0.2819281220436096,"282":0.2867262661457062,"283":0.5025224089622498,"284":-1.1804718971252441,"285":-3.6115336418151855,"286":1.27601158618927,"287":3.592365026473999,"288":-2.989234209060669,"289":2.2339584827423096,"290":-2.4133565425872803,"291":-4.210138320922852,"292":-3.6229753494262695,"293":-0.715920090675354,"294":0.8485027551651001,"295":-4.808230400085449,"296":-2.2564382553100586,"297":-5.92593240737915,"298":2.998946189880371,"299":1.8335148096084595,"300":8.66110897064209,"301":0.3511371314525604,"302":-3.441718101501465,"303":-3.133929967880249,"304":3.502349376678467,"305":-4.447721004486084,"306":-1.3602378368377686,"307":-2.0566134452819824,"308":-0.8045048713684082,"309":-3.34740948677063,"310":-1.2076587677001953,"311":-6.32105827331543,"312":-0.7632719278335571,"313":-1.9706835746765137,"314":-2.27378249168396,"315":0.5660327076911926,"316":1.0876904726028442,"317":0.573688268661499,"318":-5.535060405731201,"319":-0.1642633080482483,"320":-8.196752548217773,"321":-1.1065998077392578,"322":-0.2309432178735733,"323":2.4298932552337646,"324":-7.668039798736572,"325":-4.541858196258545,"326":4.049686431884766,"327":2.0433197021484375,"328":-3.2271430492401123,"329":-2.776028633117676,"330":3.193488836288452,"331":-0.3376081883907318,"332":3.979262113571167,"333":3.4445431232452393,"334":9.019028663635254,"335":3.134044885635376,"336":-6.1746649742126465,"337":4.429723739624023,"338":1.2934820652008057,"339":-2.3130712509155273,"340":-5.766629695892334,"341":1.2019524574279785,"342":2.5178334712982178,"343":-2.6303629875183105,"344":4.400279998779297,"345":-2.6617178916931152,"346":2.5332345962524414,"347":-5.072775363922119,"348":1.5393900871276855,"349":-1.8643988370895386,"350":-6.965600967407227,"351":-0.31453344225883484,"352":1.4511966705322266,"353":9.31956958770752,"354":0.5204890966415405,"355":-2.340526819229126,"356":-1.6704837083816528,"357":1.3198515176773071,"358":-1.9802123308181763,"359":-0.3722694218158722,"360":1.9681936502456665,"361":-7.214630126953125,"362":0.6080536842346191,"363":6.131203651428223,"364":2.6887073516845703,"365":-2.8684680461883545,"366":-2.2262122631073,"367":6.197247505187988,"368":-2.8816475868225098,"369":-3.696535348892212,"370":1.598514199256897,"371":-8.42866325378418,"372":3.6180922985076904,"373":-2.4846303462982178,"374":0.880094587802887,"375":-3.054208278656006,"376":1.4882758855819702,"377":-0.21039564907550812,"378":4.593024730682373,"379":4.909822463989258,"380":1.7485235929489136,"381":-4.729014873504639,"382":3.874485492706299,"383":2.2692711353302,"384":2.5124900341033936,"385":-3.6310906410217285,"386":-3.959139108657837,"387":1.6122392416000366,"388":-1.0612818002700806,"389":-2.7206196784973145,"390":1.0212137699127197,"391":-0.5002250671386719,"392":-0.32545483112335205,"393":0.3152976632118225,"394":-4.869975566864014,"395":-3.2521355152130127,"396":-0.5756708383560181,"397":3.7895209789276123,"398":4.2252092361450195,"399":0.26204583048820496}},"inputBias":{"rows":20,"columns":1,"weights":{"0":-6.43947172164917,"1":-4.790726661682129,"2":-3.4402670860290527,"3":-8.734711647033691,"4":-5.284641742706299,"5":-5.7145609855651855,"6":-8.355828285217285,"7":-5.914766311645508,"8":-7.6188154220581055,"9":-10.133085250854492,"10":-4.111666679382324,"11":-4.849477291107178,"12":-5.276061534881592,"13":-8.386775016784668,"14":-6.068589687347412,"15":-6.914282321929932,"16":-6.134436130523682,"17":-7.55471134185791,"18":-9.630228996276855,"19":-5.759049415588379}},"forgetMatrix":{"rows":20,"columns":20,"weights":{"0":-0.11835338920354843,"1":-1.9911179542541504,"2":5.269517421722412,"3":-0.22032007575035095,"4":1.5881599187850952,"5":2.6115334033966064,"6":0.07307859510183334,"7":3.8169667720794678,"8":4.334557056427002,"9":-1.121958613395691,"10":4.196495056152344,"11":-4.497751235961914,"12":2.1715290546417236,"13":-2.3843719959259033,"14":0.3947272002696991,"15":1.3889857530593872,"16":-1.3053663969039917,"17":4.270847797393799,"18":-3.528745651245117,"19":-1.621541976928711,"20":-3.9436137676239014,"21":-1.1421306133270264,"22":0.9997091293334961,"23":0.845782458782196,"24":-1.8960871696472168,"25":0.6430254578590393,"26":2.9989657402038574,"27":-1.9435428380966187,"28":2.7698371410369873,"29":-2.190682888031006,"30":4.49226713180542,"31":0.9674217104911804,"32":-1.1552292108535767,"33":2.117898464202881,"34":0.5351758003234863,"35":2.9763545989990234,"36":-3.286045551300049,"37":2.654937982559204,"38":1.8467377424240112,"39":-1.9224684238433838,"40":-0.49542203545570374,"41":1.6897284984588623,"42":-0.9677367806434631,"43":-2.8605356216430664,"44":0.15140636265277863,"45":-0.14683692157268524,"46":0.34396666288375854,"47":1.1412996053695679,"48":1.6556693315505981,"49":-0.7920583486557007,"50":-0.9776413440704346,"51":3.202193260192871,"52":0.9504152536392212,"53":-0.503235399723053,"54":-2.6955714225769043,"55":-2.2947511672973633,"56":2.3347976207733154,"57":3.805826425552368,"58":-2.2171859741210938,"59":-2.2101352214813232,"60":1.0654457807540894,"61":-0.7771815657615662,"62":1.9628727436065674,"63":0.025749994441866875,"64":1.4779396057128906,"65":-1.894058108329773,"66":0.020312555134296417,"67":0.19305169582366943,"68":-2.6468183994293213,"69":-0.8311864137649536,"70":2.6368024349212646,"71":2.1292479038238525,"72":-1.5927656888961792,"73":1.765820026397705,"74":0.8700341582298279,"75":-1.9674832820892334,"76":-2.7656021118164062,"77":-0.4033418297767639,"78":0.596202552318573,"79":2.935654640197754,"80":0.7078031301498413,"81":-1.3528722524642944,"82":1.5266821384429932,"83":2.462064266204834,"84":-1.6452007293701172,"85":-0.019733119755983353,"86":5.088044166564941,"87":-2.8883447647094727,"88":1.1007232666015625,"89":-1.786018967628479,"90":-1.0060789585113525,"91":1.0003663301467896,"92":-0.18129518628120422,"93":1.9498182535171509,"94":-0.3897322416305542,"95":-0.2918424904346466,"96":-1.0698211193084717,"97":0.06415882706642151,"98":2.810274124145508,"99":-0.7214179635047913,"100":0.026779640465974808,"101":3.29262113571167,"102":0.08635688573122025,"103":0.7073602676391602,"104":3.246062994003296,"105":-2.678731679916382,"106":0.723049521446228,"107":0.1867380440235138,"108":0.26596638560295105,"109":-2.180067777633667,"110":-2.111180067062378,"111":1.958876132965088,"112":-0.6370229125022888,"113":-1.5802265405654907,"114":1.62429678440094,"115":0.46928870677948,"116":0.6524658203125,"117":-1.5077621936798096,"118":-0.8369339108467102,"119":-0.473784476518631,"120":-2.7685463428497314,"121":-2.1263513565063477,"122":2.4521515369415283,"123":2.657108783721924,"124":1.4447144269943237,"125":-2.832115650177002,"126":2.0361199378967285,"127":-1.0455174446105957,"128":-0.6424420475959778,"129":-2.5307538509368896,"130":-2.388780355453491,"131":0.4825374484062195,"132":0.3077746629714966,"133":0.7661290764808655,"134":0.128754660487175,"135":0.7555494904518127,"136":0.17958076298236847,"137":-2.379424810409546,"138":-2.01859450340271,"139":1.2953473329544067,"140":0.8677638173103333,"141":-1.215114951133728,"142":-0.6983474493026733,"143":-1.9574960470199585,"144":-2.736222743988037,"145":0.11125260591506958,"146":-3.669764995574951,"147":1.0761669874191284,"148":0.9737128615379333,"149":1.0257927179336548,"150":0.4240337014198303,"151":-3.5427353382110596,"152":-0.03180035203695297,"153":1.3160920143127441,"154":-1.9690543413162231,"155":-1.1065113544464111,"156":0.3409079313278198,"157":1.5160207748413086,"158":-1.9646344184875488,"159":-1.2174124717712402,"160":-3.3139758110046387,"161":-0.48106512427330017,"162":0.04895953834056854,"163":-0.8453884124755859,"164":-1.157381534576416,"165":-0.781522810459137,"166":-2.3012659549713135,"167":2.453036308288574,"168":2.9016008377075195,"169":1.0685820579528809,"170":-1.079541563987732,"171":-0.48136353492736816,"172":1.776113748550415,"173":-1.5911105871200562,"174":-2.987186908721924,"175":0.35160714387893677,"176":4.493229866027832,"177":3.3757288455963135,"178":-0.9509810209274292,"179":-1.7278094291687012,"180":4.606241226196289,"181":3.6493756771087646,"182":-1.6238778829574585,"183":-3.2679312229156494,"184":2.4406023025512695,"185":-0.47791680693626404,"186":-1.6972078084945679,"187":2.242605686187744,"188":-1.5103286504745483,"189":-0.06021185964345932,"190":-5.694980144500732,"191":3.5052883625030518,"192":5.013160705566406,"193":0.3845392167568207,"194":-0.44077083468437195,"195":1.0836960077285767,"196":1.7944785356521606,"197":0.77205491065979,"198":-2.4847171306610107,"199":-2.0690314769744873,"200":2.5094494819641113,"201":4.644120693206787,"202":-2.184565782546997,"203":-5.031523704528809,"204":1.819845199584961,"205":0.7302113175392151,"206":1.3782957792282104,"207":-0.560025155544281,"208":-1.6103858947753906,"209":0.9396806955337524,"210":-2.345148801803589,"211":-1.1154065132141113,"212":1.6516401767730713,"213":-4.489222526550293,"214":-0.6350483894348145,"215":2.769240379333496,"216":3.908310890197754,"217":-1.7626352310180664,"218":0.7172449827194214,"219":-0.9556150436401367,"220":0.3749206066131592,"221":2.845553398132324,"222":-3.1564598083496094,"223":2.6036016941070557,"224":0.5729767680168152,"225":-5.5513386726379395,